of -0.076947 -0.021211 0.21271 -0.72232 -0.13988 -0.12234 -0.17521 0.12137 -0.070866 -1.5721 -0.22464 0.04269 -0.4018 0.21006 0.014288 0.41628 0.017165 0.071732 0.0069246 0.18107 -0.15412 0.14933 -0.030493 0.29918 0.029479 -0.036147 -0.061125 0.083918 -0.12398 -0.10077 -0.0054142 0.3371 -0.25612 0.44388 -0.68922 0.1802 0.34898 -0.052284 -0.26226 -0.47109 0.21647 -0.4002 -0.049986 0.011376 0.54994 -0.22791 0.095873 0.47693 -0.056727 -0.17895 0.11756 0.14662 0.048948 0.13587 -0.093821 0.45968 -0.32062 0.29911 0.20656 -0.18503 -0.2769 -0.022545 0.70698 -0.23815 0.16437 -0.55044 -0.0010615 0.12266 0.11898 0.23985 0.29815 0.013207 0.16316 -0.61334 -0.37051 0.19444 -0.13621 -0.30426 -0.37715 0.065299 -0.15995 -0.56516 0.074696 0.40184 0.19328 0.041802 0.20572 0.28971 0.34783 0.33873 -0.10052 -0.16397 -0.15236 -0.086815 0.36522 0.14969 -0.40859 0.23106 0.17162 -0.60545 0.086019 0.37043 0.17937 -0.40282 -0.62471 -0.055919 0.15092 0.12554 -0.45344 0.34417 0.40042 -0.049512 -0.29969 -0.31761 0.30023 0.090029 0.3106 -0.033077 -0.21995 -0.40396 -0.34443 -0.21248 -0.37636 0.21835 -0.1785 -0.17261 0.16391 0.22753 0.2686 0.57541 -0.14912 0.20413 0.22187 -0.27014 0.068253 0.29115 -0.067943 0.10623 -0.16281 0.19939 -0.48613 0.035688 -0.12373 0.13707 0.33359 -0.12713 -0.31711 -0.13962 -0.04288 -0.0014614 0.76883 -0.41705 -0.092911 0.16315 0.29202 0.12119 -0.076683 0.14131 -0.093406 -0.042796 0.13738 0.014278 0.11918 -0.34215 -0.19076 -0.12499 0.24648 0.42259 0.091966 0.45351 0.14437 0.1878 -0.85876 0.059621 -0.32242 0.28627 0.12427 0.0090984 -0.1891 0.16638 0.099881 -0.048553 -0.026257 0.099904 0.12406 -0.015416 -0.29707 -0.4044 -0.17258 0.36468 -0.014118 -0.11889 -0.11686 -0.14124 0.28012 0.067644 0.1485 -0.35702 0.29626 0.36004 1.019 -0.067307 -0.11588 -0.2178 0.070191 0.23154 -0.13849 0.26441 0.28742 0.1941 -0.0060504 0.44105 0.12416 -0.27745 -0.25729 0.10992 0.18362 -0.34522 -0.21861 -0.18825 -0.037454 -0.20862 -0.25216 0.060842 0.068595 0.10275 0.10745 -0.061288 0.19725 -0.27739 -0.022559 0.052794 -0.24083 0.09199 0.30959 0.054999 0.063676 -0.087357 -0.34495 0.22793 -0.42405 0.24536 0.55708 0.19126 -0.797 -0.2048 0.32545 0.09235 0.084791 -0.16433 -0.066568 -0.099249 0.31526 -0.44465 0.087281 0.3288 -0.017809 -0.23855 -0.12848 0.041509 0.46728 0.48214 0.10548 0.065805 0.067221 0.13321 -0.27856 0.015532 0.30026 0.38748 -0.14401 -0.16131 0.17678 0.16448 -0.3244 0.007937 -2.2836 0.096945 0.66131 0.16857 -0.028877 -0.10791 -0.027445 -0.25695 0.046686 0.23087 -0.076458 0.27127 0.25185 0.054947 -0.36673 -0.38603 0.3029 0.015747 0.34036 0.47841 0.068617 0.18351 -0.29183 -0.046533
to -0.25756 -0.057132 -0.6719 -0.38082 -0.36421 -0.082155 -0.010955 -0.082047 0.46056 -1.8477 -0.11258 -0.12955 0.27254 0.0072891 0.26038 0.12096 -0.23193 0.03226 -0.29472 -0.67594 -0.33844 -0.23297 0.1102 0.18816 -0.45184 -0.33833 0.11274 0.4949 -0.042132 0.079961 -0.013146 0.062284 0.20223 0.038279 -1.1154 -0.1214 0.089846 0.29702 -0.055794 -0.46021 -0.13194 0.087357 -0.27865 0.14981 0.25536 0.16698 -0.04452 0.067588 -0.11772 -0.13452 0.28694 -0.39844 -0.12806 -0.47818 0.067802 0.20353 -0.30677 0.60789 -0.18588 0.11997 -0.040508 -0.06586 0.30621 -0.055824 0.039448 -0.4557 0.21081 0.25889 0.14666 0.3095 0.14343 0.10524 0.15788 0.103 0.32211 -0.27939 -0.17139 0.32202 0.10784 -0.28209 0.12611 -0.23913 -0.089638 -0.39179 -0.26402 0.36796 -0.23691 0.62503 -0.027226 -0.038851 -0.37359 0.045442 -0.17169 -0.54477 -0.091772 -0.32952 -0.25522 0.087106 0.048685 -0.31684 -0.064198 0.044885 -0.49587 0.429 0.36198 -0.14682 0.20122 -0.030038 0.18736 0.31626 0.059023 -0.13473 -0.40664 -0.52983 0.072459 0.082531 -0.32495 -0.006691 0.43564 -0.12976 -0.26293 0.15975 0.25062 -0.064732 -0.30689 0.16084 0.4583 0.38565 0.12612 -0.00080485 0.18055 0.24757 0.5568 0.21701 0.33105 0.11991 0.0027257 -0.10679 -0.16922 0.25277 0.36024 -0.4762 -0.20035 0.38473 -0.71653 -0.13788 -0.12201 -0.16979 -0.29624 -0.010344 0.19216 0.063375 0.30977 -0.19759 0.57419 0.34018 -0.34795 -0.085304 -0.028243 -0.39182 0.23797 -0.092997 0.11981 -0.2368 0.098179 0.083047 0.12652 0.16026 -0.14166 0.14296 -0.12868 0.18181 -0.42337 0.18061 -0.051635 -0.17987 -0.097071 0.0013755 -0.42539 0.56817 0.057432 0.31577 0.18918 0.27639 -0.39906 0.18594 -0.54231 0.61376 0.37921 0.1366 -0.39842 0.58557 0.054558 0.061801 0.32546 -0.19615 -0.034329 -0.013225 0.67854 -0.16672 0.92439 0.11952 0.040351 0.35368 -0.25573 0.26648 -0.020954 0.18535 0.062376 -0.22976 -0.074563 -0.3289 0.28535 0.46959 -0.54324 0.14124 0.19964 0.1541 0.024155 0.144 0.30989 -0.15989 -0.11611 0.09102 -0.50317 -0.33662 0.059168 0.43838 -0.1428 -0.0053718 0.046505 0.21546 0.065006 -0.35175 -0.17137 0.20467 -0.07173 0.40879 0.20295 -0.014211 -0.21898 -0.12831 0.3224 0.17608 -0.60267 0.036737 0.54848 -0.47682 -0.56556 -0.083633 0.032302 -0.25262 0.39481 -0.019623 0.62547 -0.11369 -0.25727 0.073363 0.18437 0.14587 0.32708 -0.52049 0.037555 0.023667 -0.068237 -0.22916 0.017755 -0.18394 0.55107 -0.23965 0.39187 -0.017785 0.43113 0.27181 -0.16043 -0.347 -2.4194 -0.028952 0.95085 0.05804 -0.23623 0.18914 0.31192 0.23064 -0.30309 -0.18603 0.07618 0.37337 -0.14444 -0.028793 -0.012806 -0.59707 0.31734 -0.25267 0.54384 0.063007 -0.049795 -0.16043 0.046744 -0.070621
in -0.44399 0.12817 -0.25247 -0.18582 -0.16614 0.25909 -0.22678 -0.069229 -0.077204 -1.5814 0.10753 0.15123 -0.039371 0.2006 0.15792 0.43324 -0.21626 0.025275 -0.16592 -0.29108 0.0021523 0.084663 0.36784 -0.032838 0.092125 -0.40108 0.1446 -0.25876 -0.11703 0.098804 -0.04319 0.022361 -0.37503 0.44156 -0.67719 -0.21881 -0.11522 0.18124 -0.58965 0.18788 0.2861 -0.28068 -0.0632 0.54372 -0.025678 0.11458 0.031563 0.52909 -0.088527 0.28774 -0.10665 0.09264 0.1355 -0.18419 0.4314 -0.020869 -0.25236 -0.22679 0.45321 0.043271 -0.13449 0.0049912 -0.14535 -0.29764 0.16016 -0.6684 0.27327 0.15247 0.073077 -0.19881 -0.087157 -0.044633 0.1115 -0.051241 -0.70671 0.023404 0.36067 -0.055768 -0.22948 -0.11894 0.08605 -0.15969 -0.34213 0.2975 0.23921 0.093323 -0.10786 -0.054065 -0.21083 0.13899 0.11314 0.23076 -0.0022573 0.24149 -0.080955 0.04065 -0.378 0.0082898 -0.4385 -0.28115 0.25843 0.15749 -0.043514 0.10557 -0.14622 0.1586 0.19999 0.42149 0.15598 -0.0075512 -0.098827 -0.29451 -0.25065 -0.10596 0.31253 0.029076 0.058986 0.23656 -0.20147 -0.3718 -0.064728 -0.31944 0.28854 -0.25287 -0.16296 -0.081592 0.32626 -0.17376 0.29944 -0.16743 -0.21161 0.262 0.40972 -0.04841 -0.19614 -0.055705 -0.48783 -0.063714 -0.12616 0.55167 -0.12978 -0.20938 -0.14516 0.28025 -0.33003 -0.10742 0.35705 0.019434 -0.19469 0.13617 0.29435 -0.1825 0.092357 0.14214 0.20934 -0.099252 -0.25698 0.11528 0.1976 -0.24459 -0.085121 -0.26033 -0.09665 -0.099706 0.1462 0.12409 0.44139 -0.082185 0.2398 0.33155 0.29472 -0.02574 -0.6724 0.17099 -0.44336 0.40155 0.035535 -0.33381 -0.30127 0.59352 0.06213 0.22637 0.12551 0.059679 0.55479 0.10582 -0.48949 0.33181 -0.07972 -0.35039 0.032213 0.20024 0.36333 -0.12796 0.003225 -0.045665 0.09832 -0.070857 -0.34799 0.27443 1.1264 0.053398 -0.079054 -0.13053 0.074163 -0.22822 -0.040045 0.25848 -0.41994 0.0017782 0.1322 0.22764 -0.20604 -0.013716 0.48998 0.63756 -0.11187 0.11135 -0.19104 -0.13215 0.0023801 -0.24815 -0.48574 0.19432 0.065064 -0.15393 0.14434 0.10069 -0.058673 -0.18539 0.050425 0.27535 -0.24751 -0.050139 0.29191 0.018815 0.36727 0.12812 -0.10293 0.16095 -0.30712 -0.17172 0.39917 0.3457 -0.53083 -0.3528 0.50422 0.14786 -0.071239 -0.019673 0.12915 0.15139 0.02374 0.059252 0.36249 -0.20221 0.21818 0.031545 0.36705 -0.046894 0.13735 -0.057606 0.027779 -0.033237 0.050452 -0.42195 -0.29115 -0.28406 0.25065 -0.23917 -0.16317 -0.1791 -0.12767 0.50467 0.21975 -0.32816 -2.1376 0.087901 0.47143 0.48375 -0.55058 -0.081249 -0.22943 -0.10266 -0.1082 0.37007 -0.4184 0.4504 -0.09231 -0.0079179 -0.2745 -0.037237 0.10104 0.10798 0.37727 0.87977 0.33583 -0.20043 -0.082191 -0.06255
for -0.24132 0.12063 0.1919 -0.26692 0.061076 -0.022878 0.58017 -0.22533 -0.20644 -1.6361 0.27715 0.15026 -0.31691 0.38411 0.032003 -0.12901 -0.053065 -0.0055874 0.10467 -0.42931 -0.23605 0.26159 0.070261 0.046544 -0.2076 -0.23013 0.018501 0.25844 0.12839 0.16461 -0.023486 0.20511 0.18169 0.30549 -1.1893 -0.40416 -0.19842 0.14848 0.13756 -0.093425 0.1929 -0.04965 0.038317 -0.29397 -0.079036 -0.10161 0.11877 0.4822 -0.29784 0.21025 0.12835 -0.26482 0.36112 -0.30893 -0.44381 0.18737 -0.21541 0.3949 -0.022203 -0.35489 -0.36777 0.14181 0.41243 -0.71339 -0.073703 -0.33782 0.20737 -0.28501 0.47233 -0.1525 0.065531 0.5353 0.25701 -0.25569 -0.096976 -0.1146 0.18648 0.63131 -0.10587 -0.17148 -0.22473 -0.061003 0.00047845 0.2257 0.045379 0.085725 -0.060717 0.04317 -0.11603 0.25903 -0.30215 0.28587 -0.28818 -0.21763 -0.23948 0.43288 -0.04084 -0.36206 0.022116 0.13942 -0.070819 -0.06265 -0.16719 0.25075 -0.073938 -0.18153 -0.089108 0.12788 -0.50767 -0.30892 0.18676 0.22779 -0.11462 -0.21483 -0.15121 -0.2917 -0.10897 0.22638 -0.074798 -0.15148 -0.13637 0.09204 0.27222 0.19741 -0.062062 -0.27252 -0.15272 -0.10209 0.053098 0.022801 0.1091 0.21148 -0.020907 0.10857 -0.049408 0.11124 -0.17701 -0.00121 -0.14335 -0.096521 0.079911 0.19257 0.34096 0.14215 -0.36738 -0.3207 -0.19761 0.15248 -0.26763 -0.18512 0.43069 0.1615 0.025156 -0.18902 0.25434 -0.49355 -0.51217 -0.13753 0.22434 -0.17512 -0.073847 -0.26023 0.26365 0.13591 -0.17958 0.56764 -0.17501 -0.094047 0.099351 0.18683 0.22519 -0.29088 -0.79464 0.21899 0.071638 0.18663 -0.27274 0.10228 -0.78778 0.6706 -0.043824 -0.099652 0.66548 -0.12354 -0.49125 0.03952 -0.16488 -0.02025 -0.32289 0.083526 -0.14496 0.32379 -0.23525 -0.24786 -0.028118 -0.090129 0.2281 0.10043 0.1415 -0.034989 0.89417 0.1307 0.059509 0.1498 0.20001 0.16255 0.029 0.17797 0.059021 -0.095148 0.20483 -0.092795 -0.049022 0.38437 0.16782 0.39579 -0.6248 0.31983 -0.10613 0.053248 0.28483 -0.26865 -0.63264 0.32117 -0.15954 -0.23866 0.05619 -0.084656 0.014805 -0.15208 0.19622 0.083831 0.18074 0.196 0.57978 -0.072943 0.4357 0.52403 0.10477 0.54837 -0.66689 0.51188 0.22309 -0.017447 -0.71843 0.078075 0.49534 0.055915 0.137 -0.062998 -0.16348 0.52879 -0.15893 -0.19031 0.28423 -0.23602 -0.18803 -0.34223 0.095075 0.050825 -0.33548 -0.64552 0.16552 0.19078 -0.020446 0.56518 -0.15641 0.38419 0.10524 0.24834 0.169 -0.22751 0.27999 0.027417 0.14738 0.32636 -2.7652 0.28688 0.42632 0.02507 -0.6626 -0.35313 -0.16386 0.54448 -0.054815 0.54757 0.0065762 0.27822 0.18534 0.062874 -0.31926 -0.17975 0.22093 0.22999 0.18652 0.21208 -0.14143 -0.063158 -0.32837 0.15507
that -0.18256 0.49851 -0.1639 -0.17443 -0.16382 -0.044109 0.27957 0.066851 0.12298 -2.4794 0.24149 0.18546 -0.18717 0.079715 0.33302 0.42865 -0.041367 -0.16182 0.050724 0.045087 0.22453 0.61712 0.32051 -0.032104 -0.39375 0.0014437 -0.094092 -0.26371 -0.35796 0.094285 0.13893 0.65392 -0.28118 -0.26782 -0.78944 0.15803 -0.10546 0.12397 0.20667 -0.15379 -0.057678 -0.24583 -0.26697 0.2152 -0.064428 0.31629 -0.17376 -0.074701 -0.36648 -0.02686 -0.1075 0.10345 -0.017767 0.042695 -0.017136 0.35075 -0.13328 0.36784 0.12393 -0.04653 0.037204 0.29934 0.4952 0.12204 -0.27603 -0.3364 0.058922 0.15802 -0.0056367 0.21791 0.11707 -0.04361 0.008349 0.0070214 0.043938 0.11344 0.33828 0.15325 -0.58786 0.46672 -0.12652 -0.19122 0.25451 0.22502 0.14879 0.092189 -0.13985 0.27358 0.23251 0.26713 -0.44398 0.40976 -0.51229 -0.14665 -0.01102 0.071824 -0.26319 0.27244 0.12643 -0.37083 0.3596 0.13582 0.12482 -0.13916 0.11157 0.3108 -0.051193 -0.11273 -0.45689 0.34491 -0.14823 -0.137 0.12242 -0.15427 0.21486 0.25317 -0.2041 0.081754 0.03881 -0.40583 0.16871 -0.2299 0.20674 0.23063 0.24366 -0.18274 -0.062705 0.12812 -0.064516 0.074334 0.12669 0.11789 0.088576 -0.1372 -0.01106 -0.012716 -0.0035247 -0.022579 0.18878 -0.11215 0.00090086 0.0090595 0.2356 -0.043798 -0.45454 -0.29099 0.18257 0.10359 -0.29622 0.20828 -0.13141 0.054049 0.13739 -0.040951 0.35176 0.19027 0.013783 0.032382 0.054266 -0.20215 0.44911 -0.27652 0.14964 -0.077348 -0.023959 0.076235 0.075218 0.14075 -0.36507 0.20819 0.063611 -0.1407 -0.66511 0.059657 -0.14432 -0.17164 -0.39068 0.26287 -0.0036708 0.29413 0.31535 0.48286 0.46871 -0.22415 -0.11031 -0.0020065 -0.32997 0.26679 0.092457 0.42964 -0.28678 0.08467 0.011193 -0.050083 0.084792 -0.017398 0.11529 0.18289 -0.27396 0.022409 0.72348 -0.42307 -0.06354 -0.050153 -0.12046 0.008331 -0.073412 0.069604 -0.24859 -0.2272 -0.15613 0.022409 0.67996 -0.032504 -0.051117 -0.04591 -0.0078706 0.19829 -0.061915 -0.009928 0.51408 -0.22065 -0.28594 0.067643 0.17443 0.25221 0.13774 0.078802 -0.0091473 -0.16622 -0.09775 0.066662 0.11759 -0.13983 -0.50508 0.12119 0.089406 -0.21979 0.048579 -0.0057536 0.47699 -0.21758 0.18851 0.021163 -0.6977 -0.16276 0.053694 -0.41053 -0.09164 -0.14957 -0.12347 -0.13177 -0.22842 -0.043611 0.52772 -0.13661 -0.11012 -0.13102 0.279 -0.18485 0.037604 -0.026723 0.32183 0.035192 -0.054587 -0.046015 -0.069506 0.023502 0.041348 0.088307 -0.12754 0.31563 -0.17489 0.38135 0.35272 0.11312 -2.3311 -0.084484 0.65596 0.34984 -0.040833 0.26918 0.077779 0.23471 -0.18731 -0.027106 -0.18765 0.1666 -0.15811 0.12011 -0.082465 -0.23241 0.022031 0.35445 0.17221 0.018176 0.038145 -0.27224 -0.19107 -0.094104
on 0.12702 0.21062 -0.18983 0.17677 -0.11784 0.24263 -0.34725 -0.32326 0.081296 -1.776 -0.066081 -0.13377 0.0010102 0.13102 0.41741 0.77473 -0.079518 0.19053 0.044738 -0.40764 -0.046894 0.43964 0.069809 -0.33559 -0.29813 0.23992 0.25527 -0.01276 -0.41956 -0.012923 0.058339 0.29482 0.0023498 0.59658 -0.91161 -0.045339 -0.077606 0.22223 -0.35978 -0.0032221 0.29559 -0.073903 0.153 0.20277 -0.15795 0.56312 0.61164 0.17862 -0.54543 0.012465 -0.048702 0.14993 -0.10606 -0.23837 0.21249 0.14609 -0.38941 0.21154 0.0063223 -0.49875 0.4614 -0.48279 0.14693 -0.21723 0.13918 -0.72538 0.062883 0.36373 -0.026048 0.28178 0.032713 0.76069 -0.14852 -0.2078 -0.049172 0.36036 0.22878 0.23048 -0.048684 -0.042746 -0.3791 -0.65305 -0.040527 0.012467 -0.32755 -0.00079343 -0.22478 0.23896 0.088743 0.10207 -0.15424 -0.17244 -0.076399 -0.16733 -0.27149 -0.089487 -0.51145 -0.44072 -0.35189 -0.58338 0.039402 0.2892 0.070737 0.40452 -0.11042 -0.18783 0.29285 -0.24341 -0.47227 -0.41295 -0.14127 -0.12326 -0.10158 -0.14612 0.13503 0.2155 -0.12738 0.34061 0.066212 -0.56523 -0.37515 -0.026139 0.10008 -0.36536 -0.31964 -0.27996 -0.39328 -0.63451 0.1199 -0.096373 -0.34213 0.69453 0.027494 -0.28522 0.19971 -0.50801 0.29699 0.42254 -0.076711 0.043671 -0.032488 0.095861 0.2288 -0.18848 -0.5737 0.26241 -0.2886 -0.12895 -0.12066 -0.14063 0.46275 0.027324 -0.2266 0.060433 0.3167 0.26924 0.1352 -0.00069562 0.38936 -0.15254 0.21002 -0.36285 0.055914 -0.12957 0.0084472 0.27156 0.12092 0.017946 0.23425 0.064904 -0.096798 -0.13798 -0.35304 -0.34414 0.24178 -0.094931 0.094896 0.36141 -0.60436 0.39594 -0.10306 0.098069 0.59287 0.080016 -0.19832 0.17439 0.093082 0.034396 0.022536 0.16734 0.09336 0.3237 0.14696 -0.36479 -0.15134 -0.37251 0.22861 -0.047097 -0.13095 -0.0042648 1.078 -0.018084 -0.3221 0.39216 0.18934 0.15495 -0.19922 -0.02478 0.0082262 0.0086026 0.39521 -0.051347 -0.068627 0.076787 0.25123 0.30932 0.17876 0.3128 0.1825 0.0015845 0.37666 0.26875 -0.49222 0.18328 -0.21255 0.076356 0.34294 -0.13586 0.22793 0.15081 0.058078 -0.1579 0.22389 -0.30747 0.70675 0.22761 -0.062035 0.24841 0.19329 -0.10496 -0.20189 0.20987 0.51022 -0.10446 -0.58765 -0.072072 -0.20905 -0.28832 0.38399 0.14737 -0.17619 -0.15925 0.58437 0.3505 0.40678 0.1692 -0.65924 -0.31048 -0.033774 0.096349 -0.17757 0.064176 0.28332 -0.015624 0.19514 -0.3799 0.20149 -0.17526 -0.024662 -0.18136 0.20998 -0.32724 0.063608 0.53964 -0.082584 0.38207 -2.3351 -0.068567 0.63971 0.20415 -0.22893 -0.42917 -0.061011 0.19008 -0.4631 -0.33151 -0.52496 -0.10862 0.12819 -0.1692 -0.3198 -0.084328 -0.38527 -0.14194 -0.53048 0.89412 -0.012956 -0.28487 -0.29371 0.24355
with -0.50425 0.31073 0.1428 -0.49815 -0.48062 0.046086 -0.4367 -0.2047 0.60727 -1.4841 0.18406 0.13658 -0.55706 0.21308 -0.078474 0.17986 -0.21076 0.28402 -0.23768 -0.079457 -0.34084 -0.15679 0.24787 0.17767 -0.10513 -0.11733 0.28637 0.00069728 -0.27436 -0.1178 -0.035483 0.16504 -0.060951 0.45712 -1.0232 -0.31636 -0.18316 -0.12902 0.017236 0.078239 -0.043684 0.006083 0.055904 -0.15209 0.36043 0.38787 0.11663 0.30253 -0.14993 0.046246 0.12645 -0.097379 -0.055758 0.013977 0.16254 0.079648 -0.13653 0.4208 0.32229 -0.086639 0.41078 -0.22772 0.13508 -0.16501 -0.092752 -0.30608 0.16828 0.1012 0.22314 -0.073602 -0.10437 0.048738 -0.017337 0.322 -0.24678 0.11937 0.20316 0.3155 -0.35358 0.040118 0.13547 0.12252 -0.141 0.14148 0.34178 -0.09911 -0.050285 -0.13262 -0.0053558 -0.27452 -0.05545 0.40733 -0.47851 0.050621 -0.20467 -0.28636 -0.088159 -0.057574 -0.10392 -0.48728 -0.34811 0.063855 0.011071 -0.41127 -0.25818 0.16825 0.467 -0.19987 -0.49671 -0.36456 -0.065765 -0.45327 -0.2299 -0.037196 0.74768 0.005756 -0.81476 0.32475 0.47131 -0.26709 -0.5583 -0.099456 0.23415 0.12299 -0.50688 -0.28213 0.026573 -0.11969 -0.25023 -0.0046001 -0.035697 0.080512 0.077042 0.20817 0.18184 -0.047404 0.12356 0.16409 0.18735 0.36834 -0.15034 0.35515 -0.043497 0.073912 -0.21727 0.24429 0.15656 -0.43379 0.1636 -0.18101 0.58186 -0.058043 0.036068 0.34316 0.25611 0.068941 0.05801 0.13699 0.077206 -0.0062436 0.464 -0.1022 -0.058472 0.19383 -0.059056 0.43927 -0.046884 0.39576 0.065572 0.10308 0.24468 0.0051464 -0.67093 0.062948 0.091564 -0.22453 -0.63027 -0.50616 -0.37829 0.1651 0.54312 0.23679 0.53861 0.056763 -0.19139 -0.37824 -0.059438 -0.0037251 -0.060475 0.018161 -0.1521 0.22743 -0.66182 0.011296 -0.23422 0.013839 -0.049026 0.24425 0.11104 -0.0019173 0.74611 -0.22987 0.28414 0.10927 0.21869 0.02918 -0.15948 0.30102 -0.24625 -0.45545 0.0041354 -0.13119 0.52311 0.09484 0.32809 0.12774 0.2664 0.031831 -0.36174 0.32824 0.69907 -0.4252 0.13377 -0.068563 -0.37317 0.24929 0.023537 0.049957 -0.22989 -0.14998 0.084978 0.014288 0.21495 -0.23156 0.055681 0.27244 -0.09422 0.35368 -0.052623 0.56429 -0.33276 0.11612 0.52414 0.59008 -0.67225 0.20872 -0.049619 -0.1544 0.17582 -0.32253 0.10399 0.0077187 -0.055851 -0.41299 0.58722 0.12799 -0.21887 -0.074941 0.049944 0.45235 -0.1452 -0.32065 0.61359 -0.089471 -0.11961 0.24405 -0.20828 -0.54893 0.0043064 -0.049354 -0.070968 0.044178 -0.014431 0.29241 0.29779 0.30132 -1.6624 -0.23556 0.53168 -0.032046 0.15837 0.26584 0.11235 0.2688 0.19323 0.83389 -0.52801 0.52752 0.11211 -0.2607 -0.24656 -0.4082 -0.39788 -0.19509 0.12998 0.49643 0.28508 -0.44105 -0.0086843 -0.2264
as -0.056826 0.23863 0.44515 -0.014863 0.1713 -0.10457 0.04575 0.32209 -0.28611 -1.7106 0.22951 0.22666 -0.15038 0.048056 0.33896 0.24517 -0.57485 -0.25071 -0.0033446 -0.061135 -0.005179 0.26721 0.065713 0.2751 -0.11415 0.076964 -0.11396 -0.17367 0.2507 0.379 -0.10846 0.086291 -0.15533 0.25446 -0.94704 0.10617 0.084343 0.22894 -0.18593 -0.091148 -0.12637 -0.0066005 -0.14456 0.042843 0.18968 0.067754 -0.019222 0.34123 -0.078346 0.12396 0.080519 -0.15997 0.29014 0.03687 -0.036792 -0.0076505 -0.21335 0.17402 0.32853 -0.013976 0.23121 0.44286 0.54756 0.031942 0.050643 -0.2723 0.11318 0.22192 0.24858 -0.0076112 -0.20666 0.17354 -0.10419 0.056558 -0.037414 -0.1826 0.41065 0.6852 -0.18628 0.13912 -0.048764 -0.069608 -0.064254 -0.023668 0.30091 0.083493 -0.39237 0.46004 0.20234 0.01315 -0.20761 -0.0022161 0.051497 -0.22715 -0.50697 0.23306 -0.3201 -0.014049 0.21677 -0.17386 0.20849 0.050146 0.11978 0.25419 0.37301 0.14686 -0.23652 0.52242 0.069126 0.17529 -0.002298 0.12054 -0.18213 -0.1632 0.24338 0.30967 0.35451 -0.34301 0.16931 -0.18414 0.11462 -0.23398 -0.13362 0.28548 0.042403 0.20324 -0.15008 0.1497 0.35743 -0.14366 -0.14729 0.29442 0.36739 -0.019627 0.021403 -0.30437 0.15316 0.017475 0.11758 0.46037 0.24902 0.22515 0.19306 0.51874 -0.24188 0.0067025 0.51048 0.16012 -0.52281 -0.24828 0.38047 -0.12651 0.0043307 0.15807 0.18793 -0.15368 -0.27258 -0.14053 0.36902 -0.053579 0.19715 -0.28491 0.26238 -0.0011838 -0.22213 0.039658 -0.32987 0.22877 0.47482 0.37566 0.37278 0.044077 -0.5171 0.38193 -0.033861 -0.28934 -0.14013 0.0096003 -0.42021 0.6281 0.256 0.31528 0.28145 0.17193 0.13255 -0.1203 -0.47558 -0.056726 0.10113 0.22485 0.17682 0.46901 -0.0721 -0.19534 -0.19161 -0.21283 -0.13168 -0.26071 0.19202 -0.1396 1.0061 -0.046612 0.062724 -0.033678 0.10796 0.13363 0.089588 -0.06322 0.038797 0.16555 0.23608 -0.049322 0.15457 -0.12405 0.2511 0.21012 0.013695 0.10874 -0.16885 -0.12889 0.094318 0.10308 -0.33216 0.11497 0.10646 0.32881 0.035044 0.20747 -0.30386 -0.00044732 -0.048379 0.0254 -0.039434 0.047665 0.12588 0.37809 0.31197 -0.010997 -0.45973 0.41432 -0.18112 0.12212 -0.10869 0.176 -0.55822 0.14679 0.67731 -0.34697 0.067624 0.14096 0.44492 -0.13261 -0.32253 -0.13906 0.4692 -0.3191 -0.28152 -0.053259 0.11532 0.22467 -0.168 -0.41067 0.38376 0.25146 -0.27562 -0.2707 -0.33162 -0.0064134 0.19679 0.13543 0.02376 0.026737 -0.058935 0.050393 -0.069584 0.041622 -1.9014 -0.34915 0.38343 0.16815 -0.23634 0.055377 0.15216 0.16516 0.25894 0.35041 0.00033606 0.26671 -0.05825 0.020595 -0.037092 0.02902 -0.19494 -0.19114 -0.022407 0.27512 -0.31988 -0.31911 -0.2283 0.15058
by 0.073515 0.25736 0.2359 0.19299 -0.29611 0.24525 0.28196 0.17337 0.17596 -1.9064 0.41646 -0.52247 0.28941 -0.14978 -0.045958 0.39363 -0.23868 0.065956 -0.017976 -0.15156 -0.10554 0.09882 0.21012 0.4942 0.44034 0.027245 -0.077807 -0.35717 -0.1256 0.08476 0.50556 0.054257 -0.049079 -0.068589 -0.69315 -0.34462 -0.15513 -0.073613 0.5586 0.24185 -0.31465 0.13847 0.0025406 0.0052615 -0.40145 0.31973 -0.29493 0.38723 0.086896 -0.13209 0.10077 0.013552 -0.040737 0.31749 -2.6474e-05 -0.086115 -0.19889 -0.065909 0.013141 -0.072675 0.24637 0.43593 0.23431 0.086261 -0.37592 -0.66076 -0.012271 -0.15227 -0.098466 -0.26475 0.43849 0.3462 0.28853 0.040032 -0.24846 0.0085505 0.61328 0.039159 -0.19772 -0.14917 -0.11404 0.46025 -0.060377 0.60515 0.3268 7.2101e-05 -0.41491 0.10186 0.60502 -0.10644 -0.0087886 0.19556 0.070595 0.11943 0.092743 -0.36545 0.063256 0.4423 0.28424 0.03232 0.37466 -0.075733 0.23567 -0.84699 -0.33139 -0.040734 -0.19888 -0.34039 -0.023971 -0.063015 -0.00058644 0.2512 -0.13327 -0.037927 0.31385 -0.12567 -0.18847 -0.25316 -0.036028 -0.73398 -0.49541 -0.075148 -0.5534 -0.68447 0.35731 -0.13375 -0.36663 -0.26612 -0.093091 0.086657 -0.1902 0.42224 -0.056448 0.32949 -0.17215 0.10682 0.44173 -0.19415 -0.42698 -0.2524 -0.33396 0.21947 -0.13877 0.10471 -0.19507 -0.057186 0.3158 0.1781 0.43675 -0.5629 1.2033 -0.12076 0.21367 0.14463 0.26866 0.1701 0.1822 0.6998 0.12953 -0.49064 -0.39844 -0.31507 0.44036 0.13683 0.23924 -0.072965 0.15785 0.17379 0.3316 -0.098831 0.38722 -0.087708 -0.83964 0.061454 -0.22821 -0.20698 -0.41644 0.42207 -0.11298 0.57636 0.096123 -0.053306 0.072136 0.016467 -0.50124 -0.20919 -0.78268 -0.15733 0.19663 0.31394 -0.29398 -0.35535 -0.272 -0.27381 -0.15854 -0.26515 0.22173 0.029352 0.27527 -0.28788 0.41057 0.021832 -0.059982 -0.52844 0.096363 -0.063465 -0.68393 0.019234 -0.10542 -0.60288 -0.3536 -0.045796 0.034367 0.015802 0.36933 0.20176 0.52654 0.35583 -0.27888 0.14355 0.52356 -0.46602 -0.2268 -0.33025 0.22143 0.439 0.64856 0.0097532 -0.13655 -0.55993 0.47595 0.44607 -0.35533 -0.024964 -0.30214 -0.35801 0.11952 0.24708 -0.32789 0.039514 -0.34741 0.053936 -0.13111 0.036739 -1.1423 0.27762 -0.0087727 -0.1718 0.12229 0.093731 0.45065 -0.42148 -0.034918 -0.37208 0.69774 -0.48293 0.26336 -0.027733 0.2968 -0.041623 -0.27315 -0.022401 -0.099488 0.17685 -0.15643 -0.1242 -0.4011 0.2362 -0.28566 -0.46947 -0.34107 -0.57982 0.19944 -0.24136 -0.20699 0.52195 -1.8485 -0.56025 0.23756 0.29337 0.0049889 0.14013 -0.33396 -0.13643 -0.13913 0.38038 -0.14755 -0.39899 0.2267 0.034484 0.27171 -0.85545 -0.14255 0.47836 -0.055087 1.0448 0.1562 -0.40107 -0.56824 -0.46862
at -0.36898 0.89703 0.34799 -0.062829 0.18046 -0.30297 0.36079 -0.013702 0.38434 -1.3094 -0.034387 0.44917 0.3595 0.2285 -0.020975 0.52298 -0.010276 0.031896 -0.39106 -0.26092 -0.12071 -0.39632 0.48307 -0.24715 -0.33466 0.82662 0.40893 0.23376 0.14166 0.16645 0.29483 -0.37072 0.086861 0.85512 -0.96862 -0.060721 -0.10459 0.25023 0.1443 -0.044215 0.26425 0.090472 -0.1924 0.53454 -0.19893 0.29252 -0.14821 0.3647 -0.15732 0.35149 -0.088094 -0.51938 0.014036 -0.253 0.043116 0.52396 -0.049139 0.4477 0.42077 -0.099867 0.28466 -0.50907 0.35615 0.18749 0.10728 -0.94786 0.30243 0.09016 0.0275 -0.46412 0.083445 0.051873 0.38449 -0.32305 -0.41284 0.12662 0.075448 -0.23403 -0.225 -0.63415 0.068452 -0.242 -0.15779 0.40198 0.01398 0.21473 0.080972 -0.24846 0.21473 0.1913 0.44364 -0.34204 -0.41926 -0.36012 -0.064189 -0.44009 -0.30557 -0.23704 -0.60487 -0.80597 0.12056 -0.13482 -0.084581 0.31442 0.020139 -0.37096 0.54883 0.40115 -0.13108 0.23612 -0.75966 -0.68541 0.13096 -0.33278 -0.10399 -0.059151 -0.054399 0.30094 -0.14817 -0.1803 -0.80154 0.028031 0.13747 -0.08332 -0.62372 0.0050644 0.041693 0.051753 0.12868 -0.090503 0.18826 0.23278 0.1448 -0.17176 -0.89621 -0.31087 0.27205 0.09358 0.38752 0.58611 -0.21142 -0.24285 0.18183 0.045134 -0.29076 -0.22093 0.22947 -0.36386 -0.19905 0.28131 0.57719 -0.18532 0.088198 -0.41232 0.10831 -0.034759 0.049272 -0.1429 -0.22444 -0.07402 0.1195 -0.16175 -0.24432 -0.30433 -0.02257 0.2643 -0.39734 -0.40645 0.55845 0.040802 0.057204 -0.20152 0.19397 -0.35354 -0.30364 0.2892 0.24984 -0.14747 -0.1503 0.51406 0.19113 0.26175 0.074331 -0.344 0.76389 0.13674 -0.29977 -0.30743 -0.086823 0.14204 0.19967 0.1175 0.1893 -0.51309 -0.26945 -0.24101 0.19673 -0.57289 -0.037942 -0.32936 1.2201 0.053738 -0.14808 -0.3089 0.10369 0.23965 -0.07021 0.11557 -0.076919 -0.73347 0.40517 -0.034934 0.28078 -0.018267 -0.22082 0.30758 0.0039613 0.15186 -0.29581 0.46255 0.45045 -0.061989 -0.0034168 0.19992 -0.85036 -0.27323 -0.085744 -0.19099 -0.23377 0.2781 0.72788 -0.017063 0.25973 -0.42443 0.47659 -0.098488 0.30542 0.35615 0.23935 0.77525 -0.76448 0.41737 0.42735 -0.071282 -0.62078 -0.34451 -0.18773 -0.32441 -0.27686 0.13415 0.36958 0.38632 -0.45414 -0.090775 0.26914 -0.030115 -0.48913 -0.51441 -0.30659 -0.029388 0.24909 -0.30728 0.070761 -0.22533 -0.038602 0.18488 0.67662 0.6891 0.15932 0.044091 -0.72046 -0.56721 0.30884 0.016838 -0.0073805 -0.26673 -2.0087 0.040844 0.14903 0.25294 -0.5787 -0.24225 0.40704 -0.84739 -0.075729 0.32128 -0.59618 -0.013321 -0.29407 -0.3433 -0.27595 -0.61138 -0.58463 -0.12572 0.42321 -0.011227 0.39072 -0.39875 -0.82992 0.1757
from -0.18559 -0.41772 -0.019296 -0.065099 -0.41371 -0.035517 -0.46149 -0.29153 0.51858 -1.5441 -0.3072 -0.14391 0.30552 -0.22007 0.01946 0.33746 -0.56526 0.38698 0.24942 -0.028965 -0.16752 -0.12778 0.50777 0.34375 -0.64033 -0.39795 -0.16922 0.40391 -0.28719 0.19228 -0.3123 -0.18883 -0.36955 0.074084 -0.77655 -0.48446 -0.041167 0.37017 0.14087 0.098732 -0.14069 0.21428 -0.066155 0.097496 0.35455 0.30742 0.29459 0.32901 -0.15827 0.070155 -0.016407 -0.18512 0.01506 0.23703 -0.52592 -0.5804 0.66301 0.30177 -0.28256 0.14469 -0.48791 0.31127 0.30807 -0.353 0.075481 -0.65902 -0.28175 0.11689 -0.073594 -0.20942 0.010226 -0.39415 0.17389 -0.40567 -0.24914 0.27361 0.52613 -0.30768 0.18079 -0.10063 0.2917 0.15077 -0.28261 -0.042551 -0.36143 -0.20687 0.18607 0.26839 0.4191 0.056919 0.23786 0.11785 -0.40099 -0.063524 0.19127 -0.42782 -0.51856 -0.0039714 0.11763 -0.15962 0.051299 0.41019 0.3065 0.32734 -0.22244 -0.096913 0.30338 0.040716 0.032069 0.43869 0.14033 -0.22016 -0.069715 -0.51407 0.48688 -0.17321 -0.26318 0.15112 -0.30975 -0.4964 -0.15772 -0.0093385 -0.27849 -0.012445 -0.11668 0.35457 -0.061062 0.22758 0.38985 -0.22907 -0.2172 -0.017055 0.26321 -0.65449 0.36185 -0.20883 0.25764 0.70301 -0.21204 -0.0079166 -0.24678 -0.15431 -0.085402 -0.1474 -0.42116 0.012344 0.21556 0.1596 -0.011567 -0.51497 1.0139 -0.15574 0.22414 -0.19117 0.47897 0.2092 0.069411 0.070464 0.03683 -0.13078 -0.27006 -0.020633 0.055389 -0.29062 -0.13219 0.13626 0.23973 -0.37244 0.43342 0.24354 0.010246 0.059118 -0.55379 0.22247 -0.48245 -0.030428 0.4412 0.087666 0.10268 0.7162 -0.17578 0.075311 -0.16964 0.18787 -0.12148 -0.10357 -0.50315 -0.27002 0.5676 -0.05969 -0.56119 0.36339 0.036121 0.16803 0.11594 -0.335 0.10189 -0.85143 0.028631 0.39692 1.0248 -0.32314 -0.040714 -0.17541 -0.018877 0.069754 -0.46688 0.47933 0.25042 -0.37276 0.30773 0.041564 -0.45206 -0.21407 0.50525 0.41875 0.21413 -0.13878 -0.14075 0.23988 0.26352 -0.56183 0.13925 0.13151 -0.15621 -0.022536 0.21291 0.24885 0.43979 0.1153 -0.32596 -0.15852 -0.30176 -0.34875 0.38491 -0.089261 0.58249 -0.13312 0.15149 0.0031835 0.10651 -0.14428 0.23015 0.31781 -0.86813 -0.08598 0.15936 -0.11203 -0.47009 0.25234 0.088992 -0.47609 0.12176 -0.14096 0.061011 0.2723 -0.24595 -0.32956 -0.059917 0.40184 -0.059465 -0.1311 -0.13948 0.06352 0.44515 0.11023 0.25526 -0.060008 -0.53159 0.12914 0.19703 -0.08676 -0.22265 -0.02535 -0.10499 -0.42133 -2.3605 -0.035012 0.11352 -0.055027 -0.36112 -0.16003 -0.24369 0.092209 -0.013687 0.49693 0.17455 0.42357 0.21279 -0.45023 0.12847 -0.039041 0.51096 0.2658 0.34563 0.055152 0.052018 -0.44912 0.17152 -0.075024
after 0.28957 0.017282 0.11879 -0.055838 0.2373 -0.21366 -0.27623 -0.11871 0.33682 -1.5118 -0.15765 -0.070386 -0.090929 -0.060822 -0.090041 0.37847 0.23821 0.16097 0.040949 -0.17486 -0.20098 -0.24879 0.30358 -0.27347 -0.12537 -0.46684 -0.03636 -0.16363 -0.044856 0.14877 -0.26302 0.046586 0.32891 0.30116 -1.3691 -0.21877 -0.07552 0.34942 0.064308 0.25971 0.1136 0.12986 -0.073339 0.12707 -0.084618 0.14251 0.13956 0.39552 -0.46861 0.17526 -0.060735 -0.35854 -0.039172 0.22354 0.16718 0.15917 0.22371 -0.0049916 -0.050267 -0.22846 -0.14641 0.078337 0.14282 -0.33757 -0.055476 -1.0003 0.3173 -0.23141 0.28686 -0.28314 -0.13647 -0.044722 -0.22362 0.27731 -0.091406 -0.068471 0.16568 -0.24755 -0.23728 0.1013 -0.11055 -0.055984 0.078205 0.43007 0.24747 -0.11824 0.096342 -0.066475 0.21617 0.18138 -0.11872 0.004182 -0.158 0.060053 -0.21139 -0.0080459 -0.25318 -0.1387 -0.083904 -0.52706 -0.063385 0.2704 0.15281 0.12953 0.011558 -0.42677 0.15658 0.12215 -0.35528 0.14905 -0.064622 0.39265 -0.11123 -0.19376 0.47887 0.15671 -0.14987 -0.18754 0.17245 -0.53347 -0.42451 -0.23934 -0.38776 0.089914 0.034646 -0.027991 -0.25815 -0.31697 0.084904 -0.22825 0.17136 0.73845 -0.092265 0.023002 -1.5494e-05 -0.1861 0.19771 -0.1708 0.027535 0.035765 0.20329 0.094685 -0.10345 0.32661 -0.36407 -0.21004 0.35567 0.045688 0.31784 -0.17679 0.43511 0.015437 -0.25518 0.33884 0.61428 -0.0018267 0.079989 -0.24197 0.13673 -0.027323 0.29919 -0.35279 0.038709 0.18399 0.16955 0.11338 0.06875 0.038906 0.077018 0.32863 -0.049127 0.09792 -0.13577 -0.032828 0.26318 0.25249 0.16488 0.036259 0.32311 0.91822 0.17622 0.41544 0.17014 -0.0096712 -0.24086 0.13479 -0.83761 0.11126 -0.34355 -0.20101 0.10168 -0.1191 -0.052622 -0.37066 -0.20753 -0.25902 0.018203 -0.14135 0.24859 0.11858 0.99187 -0.029798 -0.14025 0.029959 -0.23274 0.072412 -0.25398 -0.11155 -0.054316 0.051823 0.052026 -0.025312 -0.10193 0.0090397 0.07296 0.30469 0.018052 -0.10126 0.013154 0.17183 0.6954 -0.27683 -0.31044 0.10513 -0.091657 0.14282 0.11963 -0.3001 -0.045513 0.20864 0.26302 0.031474 -0.41067 -0.38617 0.4532 -0.19133 0.27634 0.13009 0.72036 0.026016 -0.097647 0.016917 -0.09034 0.12185 -0.33746 0.0035174 0.47056 0.00028337 0.10672 0.14063 -0.0042168 0.20597 -0.041144 -0.33724 0.43372 0.12856 0.086579 -0.034042 0.36957 0.33202 -0.3707 -0.015724 -0.23327 -0.035822 0.31745 0.35128 -0.21534 -0.45987 -0.098798 -0.10782 -0.13201 -0.20806 0.10741 0.02314 0.30022 -0.00014243 -2.1031 -0.30445 0.26375 0.44004 -0.5274 0.028529 0.3035 -0.35671 -0.017131 0.45899 -0.54063 0.28477 -0.085126 -0.10231 -0.12078 -0.39224 -0.024101 -0.13095 0.12118 0.63792 0.039345 -0.57292 -0.1657 -0.128
about -0.53536 0.041896 0.1764 -0.28691 -0.11257 -0.0038503 -0.0052442 0.1659 0.26739 -1.9554 -0.16591 0.59037 0.14476 0.68578 0.41201 0.31483 0.12808 0.30139 0.17745 0.58234 0.34608 0.7884 0.11429 0.25261 -0.088587 0.143 -0.089452 0.090983 -0.24025 0.26854 -0.21881 0.77407 -0.55255 -0.34857 -0.80313 0.054283 -0.10563 0.40891 0.1898 -0.66612 0.28743 -0.20361 0.04772 0.18121 0.2269 -0.083114 0.047608 0.11945 -0.48029 0.54322 0.40552 -0.10242 -0.14832 0.22611 -0.082856 0.43302 0.37048 0.9054 0.27099 0.016207 -0.014859 -0.39243 0.27051 -0.58155 0.093329 -0.85979 0.15712 0.033739 -0.042772 -0.37728 0.28214 -0.035536 0.52984 -0.26665 -0.10417 0.2792 0.7681 0.028522 -0.30909 -0.26545 -0.34349 -0.5628 0.36764 0.45067 -0.29241 0.083916 0.1518 0.019246 0.39606 0.44115 0.1482 0.22186 -0.57062 0.27739 -0.058064 -0.22718 -0.47293 0.45283 -0.19387 -0.53113 0.23124 0.28214 -0.06369 -0.61856 -0.21166 -0.40553 0.95263 0.043692 -0.65233 0.5607 -0.10202 -0.67509 -0.17154 -0.26911 0.5044 0.43593 0.23042 0.30601 0.21182 -0.40203 -0.47995 -0.13367 -0.56978 0.53824 -0.3538 0.10964 0.064973 -0.059347 0.20693 -0.18064 -0.28816 -0.21637 -0.14558 0.12153 -0.011279 -0.091232 -0.22696 -0.11946 -0.041208 -0.14484 -0.25529 -0.14721 0.41278 0.18361 -0.67258 -0.25094 -0.38598 -0.32165 0.182 0.057317 0.2756 -0.015821 0.023075 0.633 0.065057 -0.12695 -0.095289 0.2399 -0.058631 -0.096349 0.37085 -0.43505 0.37016 -0.34327 -0.0067508 0.2156 -0.51754 0.39419 0.22174 -0.16895 0.044891 0.021275 -0.91063 -0.24636 0.12613 -0.38381 -0.026529 -0.064826 0.20622 0.51123 -0.066849 -0.12819 0.0024148 -0.40713 -0.28529 -0.22124 0.28088 0.087873 0.11352 0.32691 -0.46851 0.41754 0.14327 -0.047105 -0.036181 -0.41947 -0.35609 -0.4107 -0.080013 -0.33517 1.0154 -0.10232 -0.26701 0.19853 0.1091 0.063969 -0.089556 -0.30027 0.21133 -0.1694 0.17885 -0.14537 0.27714 -0.051833 -0.46822 -0.27065 -0.21898 0.22945 -0.32489 0.42209 0.45244 -0.43638 0.2371 0.60323 0.21045 0.30092 -0.029872 -0.13319 0.15471 -0.018907 0.36551 0.20491 -0.22377 -0.037058 0.1732 -0.076597 0.31284 0.24194 -0.39493 0.29428 -0.006852 0.057544 0.52858 0.25979 -0.59873 -0.50763 -0.064048 -0.52761 0.33171 0.59082 -0.42653 -0.048994 0.32219 0.11128 0.48394 -0.013999 0.12078 -0.23301 0.42505 -0.045943 0.60957 0.30611 -0.23535 -0.42805 0.17047 0.23405 0.048369 0.091224 0.40129 0.3808 -0.21664 -0.32747 0.036271 0.18735 0.44261 0.28659 -1.9797 -0.22205 0.7228 -0.23034 -0.013246 -0.09337 -0.0026965 -0.20598 0.055432 0.20706 -0.079338 0.30739 0.0043896 0.11752 -0.077828 -0.25689 0.21778 -0.25412 0.19863 -0.3704 -0.44963 0.049404 -0.29377 0.2213
out -0.006702 0.023282 0.056631 0.13767 0.15176 0.31977 -0.41691 -0.26966 0.22665 -1.7243 0.30504 -0.039229 0.063504 -0.31062 -0.38542 0.73029 -0.39348 0.0045617 0.1715 0.062673 0.19969 0.24524 0.2696 0.014634 -0.44298 -0.11396 0.032549 -0.069824 0.18112 0.025292 -0.019494 0.23233 0.023472 -0.12698 -1.3658 -0.25102 -0.16257 0.19771 -0.24197 -0.048158 -0.23164 -0.053806 0.16385 0.04347 0.24616 0.030971 0.18841 -0.058293 -0.13632 0.078743 0.041549 -0.21274 0.23747 -0.37877 -0.16339 0.052299 0.0063852 0.15048 -0.081504 0.20855 0.039584 0.22095 0.099401 0.2558 -0.24972 -0.41465 0.5842 -0.0082411 0.049077 -0.27907 0.36715 -0.057012 0.004195 0.0071125 0.11494 -0.12631 0.18303 0.21249 -0.049475 -0.22161 0.011856 -0.2632 0.33802 0.36596 -0.061898 -0.10627 0.013128 -0.061582 0.50268 0.20529 -0.38355 0.3791 -0.46955 -0.21132 0.018932 -0.081747 -0.51679 0.016032 -0.019883 -0.58332 0.38119 0.0049793 0.11671 -0.12755 0.082323 -0.18588 0.32865 0.29325 -0.19579 0.1124 -0.031503 -0.65456 -0.28142 -0.15879 -0.074279 0.45652 -0.86732 0.36223 -0.012625 -0.60112 0.060968 -0.32928 -0.16675 0.28137 -0.017862 -0.060203 0.081256 0.011335 -0.22276 -0.04298 -0.06702 0.23037 0.29572 -0.45785 -0.12589 0.048653 0.068937 -0.079358 0.29648 -0.21934 0.053262 0.24369 0.034667 0.28742 -0.73112 -0.011322 0.16406 0.31662 -0.066868 -0.10612 0.23287 0.14259 0.016137 -0.26753 0.37595 -0.1461 0.03816 -0.1486 0.12486 0.10946 -0.0074111 -0.083365 -0.040835 -0.17596 0.08958 0.011938 0.2701 0.23132 0.10642 0.22848 -0.19163 0.17114 -0.1025 -0.097142 -0.27362 0.12989 0.029274 0.46861 -0.090331 0.20276 0.3011 0.35452 0.39965 -0.012045 0.04927 -0.16916 -0.25494 -0.31622 0.50545 -0.15972 -0.020617 0.14497 0.30939 -0.14142 0.20946 -0.16431 -0.38486 0.070312 0.54671 -0.35523 1.0986 0.014061 0.092644 0.16534 0.16922 -0.053308 0.15195 -0.058128 0.19848 -0.0087042 -0.37552 0.02155 -0.088723 0.25295 0.48501 0.23096 0.13931 0.2015 -0.0053124 0.15121 0.53547 0.015043 -0.3504 -0.13525 -0.2652 -0.19323 0.4237 -0.066371 -0.025806 -0.076498 0.022186 -0.052284 -0.19676 -0.056241 0.37353 0.1978 -0.022994 -0.13256 -0.29734 0.13694 0.37207 -0.012092 -0.064262 0.26212 -0.70336 -0.38676 0.67543 0.42716 -0.27227 0.29357 0.2614 -0.11086 0.27028 -0.25726 0.90105 -0.12708 -0.13514 -0.29591 -0.090235 -0.043208 0.15982 -0.29938 0.14458 0.11647 0.0013023 0.090738 -0.33932 0.08236 -0.0035309 0.33679 -0.075846 -0.0043191 -0.2093 0.34533 -0.12129 -0.27461 -2.2633 -0.24566 0.24286 -0.12561 -0.42515 0.31715 0.0039069 0.56875 -0.16263 0.58666 0.12083 0.15786 0.050027 -0.069374 -0.18687 -0.19753 0.35345 0.42276 0.25105 0.38778 0.41607 -0.19109 -0.043105 0.028155
than -0.59524 0.32358 -0.0453 -0.012025 -0.042876 0.19572 0.25458 0.29147 0.17152 -2.0158 0.022848 0.33548 -0.071216 0.50389 -0.01183 -0.20115 -0.44108 0.12061 -0.0057938 -0.045433 -0.081495 0.25979 0.48275 0.31389 0.059267 0.26358 -0.20541 -0.22926 0.29444 0.17992 -0.14889 0.26666 -0.32117 -0.41719 -0.91961 -0.26667 0.32125 -0.24154 0.38626 -0.20216 0.19955 0.07291 -0.07258 -0.34334 -0.016263 -0.16963 0.041388 0.10401 0.11716 0.05542 0.057767 -0.44253 0.17709 0.17911 0.021123 0.11308 0.04947 0.099329 0.085543 -0.49483 -0.20986 -0.24143 0.57308 -0.72423 0.27228 -0.43334 -0.096399 0.047277 0.2087 0.29069 0.033702 0.086824 0.078224 0.030533 0.21404 -0.035108 0.19706 0.04421 -0.29546 0.09959 -0.24275 -0.26514 -0.06762 0.0061411 -0.15318 -0.00031661 0.083599 0.1719 0.094851 0.24007 -0.054876 0.46034 -0.46475 0.2266 -0.038634 -0.35801 -0.39165 0.12959 0.17819 -0.22853 -0.038592 -0.09275 0.0086781 -0.53824 -0.34269 0.15305 0.33207 0.093208 -0.54883 0.0035636 -0.56961 -0.2926 -0.23037 -0.28157 -0.014229 0.26033 0.22423 0.40345 -0.16064 -0.10939 -0.26988 -0.15243 -0.26888 0.9243 -0.18719 0.44764 0.46023 -0.01994 0.27924 0.028449 -0.51053 0.24288 -0.029117 0.19034 -0.12722 0.23504 -0.10102 -0.011945 0.03096 0.18067 -0.49876 0.15537 0.067191 0.3188 -0.63448 0.038279 -0.24244 0.2642 -0.28776 0.21901 0.72297 -0.11682 0.078069 0.19035 0.23526 0.11638 -0.59818 0.14876 0.19589 -0.20629 -0.21451 -0.024093 0.020146 0.16719 0.14874 0.026334 -0.27909 -0.062329 0.34776 -0.038866 0.28067 0.29618 -0.9189 0.19112 0.5196 -0.80601 -0.12861 0.10749 0.18146 0.44528 0.30099 0.22258 0.097989 -0.099006 -0.031405 -0.30835 0.32273 0.29397 -0.1347 -0.19226 -0.41802 -0.18366 0.4268 -0.11204 0.4426 -0.38439 -0.054813 -0.056146 0.10909 -0.092503 0.96113 -0.30532 0.05187 0.27695 -0.075072 0.25609 -0.21439 0.10249 -0.027458 -0.33564 -0.06364 -0.032878 0.20356 -0.18364 0.28567 0.058177 -0.23302 0.13247 -0.059147 -0.22005 0.24599 -0.043607 -0.57848 0.59496 -0.17603 -0.0050886 0.27942 -0.0022145 -0.052565 -0.31583 0.02389 0.20903 -0.23978 0.15201 0.20991 0.088889 0.35376 0.26851 -0.26448 0.23548 -0.22588 0.010023 0.73468 -0.1536 -0.56636 -0.40391 0.27071 0.2751 -0.11217 0.31909 -0.20451 -0.22092 0.0098752 -0.10618 0.17426 0.048614 -0.051706 -0.17509 0.24941 -0.06712 -0.082286 0.20618 -0.045451 0.032966 -0.13673 0.23295 0.1217 0.06727 0.68865 0.35258 0.094553 0.012374 0.42492 0.049613 0.1553 0.13283 -2.4265 -0.30759 -0.045738 0.019686 0.056799 0.031491 0.21484 0.066252 0.075542 0.29071 -0.25472 -0.037851 -0.064745 -0.047067 -0.073662 -0.29654 0.28851 0.1507 0.51352 -0.1223 -0.033151 -0.29194 -0.05189 0.0038907
over -0.088137 -0.021696 0.29863 -0.018325 -0.23575 0.11022 -0.17493 0.0099241 0.23832 -1.7643 0.22489 0.40552 -0.48176 -0.066099 0.1329 0.47502 -0.056438 0.32902 0.097628 0.42467 0.25285 -0.17258 0.076564 -0.15678 -0.22694 -0.21213 -0.3346 0.073842 -0.44671 0.33979 -0.23534 0.15013 -0.34718 0.054379 -0.88699 -0.35534 -0.13166 -0.018265 -0.18708 0.30193 0.10008 -0.1198 -0.74867 0.15592 0.42757 -0.29996 -0.12499 0.1275 -0.21962 0.45077 -0.32268 -0.28934 -0.13745 -0.17738 0.24185 -0.01224 0.17264 0.27287 -0.082743 0.2057 0.022559 -0.075793 0.21027 -0.31239 0.13032 -0.75693 0.090872 0.49975 0.11746 -0.53133 -0.085348 0.44042 0.12231 -0.18672 0.11668 0.010322 -0.26779 0.15042 -0.54751 -0.38439 -0.67117 -0.34912 0.1419 0.12742 -0.12879 -0.13582 0.29059 0.14339 0.28467 0.070642 0.0047118 0.18321 -0.40973 0.21973 -0.66693 -0.10599 -0.34465 0.23103 -0.36278 -0.012365 0.11544 0.036134 0.074889 -0.64933 -0.033362 -0.30498 0.40964 0.26898 -0.2115 -0.11446 -0.048326 -0.59265 -0.37301 -0.054902 -0.19869 0.23181 -0.29017 0.62177 0.089856 -0.64116 0.039304 0.09717 -0.29954 0.40426 0.08401 0.12902 -0.35864 0.39975 0.13183 -0.14797 -0.31449 0.48654 0.029974 0.53637 0.11619 0.14643 -0.22927 0.079999 0.13114 -0.030946 0.1641 -0.35597 0.20801 0.33193 -0.84092 0.33762 -0.075518 -0.43158 0.19592 -0.27815 0.66744 0.031189 -0.011706 0.53737 0.29596 0.37335 -0.22166 0.023843 -0.11905 -0.18529 0.011857 -0.2354 0.238 -0.031987 -0.164 -0.079319 0.09957 0.026182 -0.60793 -0.067515 0.03987 0.070721 -0.60965 -0.73549 -0.0081241 -0.13363 -0.16572 0.32373 0.10115 0.60659 -0.022547 0.2596 0.24251 -0.078426 -0.078699 -0.4168 -0.14208 0.025136 -0.34187 0.27631 0.24892 0.27898 -0.26522 -0.33989 0.17929 -0.40393 0.27421 0.22639 0.45234 -0.24806 0.94945 0.1404 0.023117 -0.33321 0.36958 -0.17507 -0.18646 -0.24238 0.020633 -0.078795 0.51631 0.45651 0.25398 0.38711 0.16812 -0.58263 -0.099027 -0.23445 0.036928 0.06133 0.24186 -0.20908 -0.03872 0.14625 -0.036779 0.25993 0.31897 -0.055307 -0.077177 0.30117 0.23307 0.4198 -0.13339 -0.020384 0.71158 0.084989 0.32791 0.4806 -0.33761 0.057392 -0.26536 0.30228 0.1854 -0.083752 -0.73776 -0.0014404 0.34121 0.029959 0.42035 0.073122 -0.1943 -0.22341 0.58658 -0.22756 0.63029 -0.068682 -0.35365 0.26851 -0.073124 0.015702 0.12022 -0.24631 0.28471 0.38292 -0.38869 0.20974 -0.20512 -0.18508 0.32543 0.0037336 -0.019901 -0.084242 0.29326 -0.058162 0.36575 0.046895 -2.1328 -0.35109 0.41716 0.18393 -0.3099 0.27303 0.016627 0.0044978 -0.072902 0.053814 -0.057213 0.15815 0.14517 0.1658 -0.073557 0.16125 -0.099237 0.26099 0.027941 0.3214 0.16931 -0.35469 -0.42713 -0.39323
into -0.18234 -0.19209 0.15167 -0.048763 0.28354 -0.025568 -0.39882 -0.014072 0.41029 -1.987 -0.087275 -0.30528 -0.4207 -0.17242 -0.30693 0.33678 -0.59786 0.054602 0.85518 0.6055 -0.40567 0.1396 0.035689 0.44263 -0.020448 -0.012484 0.33335 0.27843 0.17969 0.087749 -0.18751 0.38865 0.27437 0.2073 -0.67627 0.53281 -0.060212 0.3741 -0.17736 0.024057 -0.224 0.015918 -0.15853 0.10634 0.68527 0.41504 0.11965 0.30794 -0.12247 0.15234 -0.24799 -0.00082312 -0.040181 0.31255 0.0092109 -0.42966 0.33973 -0.27939 -0.058729 -0.050781 0.17108 0.46297 0.064687 -0.062336 -0.238 0.088816 0.16204 0.37314 0.2088 0.086903 0.23596 -0.17365 -0.05268 0.16256 0.21552 0.041055 0.26416 -0.16653 0.23778 -0.69474 0.22748 -0.23981 0.022849 0.073929 0.3096 -0.37906 -0.20861 -0.034051 0.71935 0.037007 -0.27495 0.38604 -0.083809 0.14518 -0.2037 -0.18411 -0.21331 0.40815 -0.078285 -0.14309 0.11584 0.31062 -0.01499 -0.090657 0.18977 -0.18568 0.10357 0.3341 -0.15725 0.59303 -0.095849 -0.083001 -0.097752 0.017887 -0.17629 0.48538 -0.41216 0.17683 -0.064685 -0.46305 -0.033818 -0.044036 -0.069094 0.42357 0.091896 -0.41447 0.10849 -0.20554 0.19287 -0.25401 0.32446 0.75941 0.34858 0.17564 0.16905 -0.1707 0.21701 -0.17049 -0.50401 -0.06812 -0.15903 -0.080363 -0.23568 0.73129 -0.34348 -0.18181 0.029438 0.0072252 -0.077991 0.10117 0.48947 0.4041 0.23694 -0.40584 0.71953 0.23876 0.10948 -0.2367 0.43193 -0.06264 -0.15056 -0.05154 0.18052 -0.29531 0.50728 -0.59634 0.11834 0.46651 -0.443 0.064586 -0.29966 0.30252 -0.33575 0.21445 -0.55192 0.079914 -0.15483 0.46237 0.42118 0.32424 0.55856 0.020495 0.18315 0.09363 0.14524 -0.62881 -0.35046 0.31581 0.15463 0.0067886 0.21526 0.38635 0.048531 -0.079353 0.23485 0.36939 -0.04951 -0.050597 0.5714 0.20796 1.1376 -0.44768 -0.00021935 -0.15063 0.22366 -0.16895 -0.17075 0.2649 -0.57323 0.48043 0.0311 0.28406 -0.12428 0.4078 0.40418 0.6017 0.53215 0.068121 0.11551 0.1948 0.63715 0.21339 -0.44949 -0.41562 0.12969 -0.10735 0.098422 0.15929 0.25059 0.045432 0.13238 0.063072 -0.48294 0.016767 0.32896 0.32507 0.21798 -0.11116 -0.41638 0.085915 0.25688 -0.25742 0.2313 0.19098 -0.65207 -0.40362 0.48928 0.47309 -0.27714 0.20005 -0.12996 0.0061259 -0.24168 -0.43997 0.51078 -0.37626 0.16745 -0.11633 0.06407 0.78171 -0.04648 -0.27902 0.47555 -0.14956 0.43411 0.11741 -0.56707 -0.18078 -0.12509 0.17521 0.20455 0.37157 -0.013434 0.43376 0.078265 -0.407 -2.1016 -0.035284 0.48625 -0.31065 -0.7404 0.1942 0.12864 0.018245 -0.23597 0.16296 -0.1396 0.49789 0.16376 0.25394 -0.058528 -0.13367 0.15902 0.072976 0.77943 0.7924 0.073351 -0.24839 0.14468 0.17683
if -0.23365 0.35933 -0.068678 -0.10677 0.077185 -0.0065757 0.24936 -0.094439 0.10171 -2.2497 0.29411 -0.18309 -0.14015 0.14378 0.0042022 0.15397 -0.40626 -0.23755 0.06609 -0.27411 0.20938 0.25076 0.59251 -0.13771 -0.3796 -0.019725 0.15471 -0.081814 -0.29737 0.10321 -0.036421 0.36891 -0.053086 -0.59242 -1.0985 0.21928 -0.23952 -0.27077 -0.16765 0.28312 -0.060327 -0.081944 -0.4888 -0.078247 -0.25126 -0.014023 0.05027 0.1088 -0.29229 0.27281 -0.17306 -0.40305 -0.032219 0.14619 -0.25921 0.38525 0.14965 0.19402 0.13982 0.18556 0.27423 0.2745 0.15379 0.5718 -0.53454 -0.31435 0.16518 -0.06865 0.21926 -0.087255 0.25342 -0.13374 0.19659 0.4886 0.050887 0.069421 -0.048893 0.37832 -0.35823 -0.091807 -0.40339 0.01941 0.24941 0.10106 0.095033 -0.20661 -0.39484 0.45071 -0.37447 0.017259 -0.81289 0.3386 -0.33798 -0.44932 -0.11854 0.37655 -0.35786 0.19755 0.006284 -0.29972 0.076409 0.12604 -0.16581 -0.00052046 0.14907 0.31872 0.33869 -0.19112 -0.22472 0.18495 0.031458 -0.26227 0.073028 -0.11315 0.043727 0.57185 -0.2229 0.022794 0.19501 -0.17949 0.10907 0.07371 0.045273 0.39019 0.29831 -0.023371 0.26478 0.25673 0.14282 0.062231 0.23436 0.22138 0.0020564 -0.065023 -0.01382 -0.015208 -0.021939 -0.024671 0.050454 0.079337 0.11195 0.34882 -0.068356 0.22876 -0.6168 -0.5235 -0.15702 -0.014239 -0.085597 -0.16883 -0.40919 -0.20063 0.26261 -0.20427 0.18798 0.15155 0.27235 -0.12111 -0.052602 0.19555 0.19679 0.0041412 -0.14338 0.27147 0.090375 -0.048094 0.001973 0.053896 -0.21163 0.13795 0.23114 0.17602 -0.59703 -0.014749 0.29315 -0.22055 0.066486 0.26519 0.38784 0.26324 0.21088 -0.20037 0.25269 -0.15037 -0.24317 -0.15769 -0.14672 0.045281 -0.18637 0.29718 -0.087475 0.13407 0.057758 -0.066766 0.073549 -0.23753 0.17782 0.20143 0.14067 -0.33611 1.2676 -0.062007 0.049594 0.071394 -0.045102 0.030137 0.39137 -0.21025 -0.15734 -0.58257 -0.34052 -0.32256 0.2857 0.11795 -0.14068 0.1302 0.12644 0.20943 -0.16204 0.20366 0.22423 0.21664 -0.30591 -0.015173 0.16767 -0.18982 0.32953 0.076262 0.066532 -0.15409 0.21891 0.12542 0.39184 -0.28244 -0.21061 0.30277 0.14185 -0.060918 0.17212 -0.098707 0.20648 -0.22386 0.41254 0.055258 -0.61414 0.18411 0.31718 0.12785 -0.14627 -0.22205 -0.075543 0.15736 -0.62155 -0.096147 0.3634 -0.0019288 -0.01122 -0.22648 0.14014 -0.03042 0.093618 -0.53809 0.087103 0.27929 -0.15032 0.0070523 0.3823 0.46017 -0.0064559 0.17097 0.1268 -0.016201 0.3331 0.20692 -0.02677 0.31363 -2.3887 -0.38073 0.40637 0.11935 -0.078843 0.17003 0.047074 0.081673 -0.065328 0.27849 0.33833 0.013355 -0.51388 -0.13005 -0.059572 -0.24437 0.36942 -0.05216 0.14862 -0.35663 0.022728 -0.71332 -0.010417 0.33218
against 0.09371 0.82952 -0.06393 -0.25459 -0.20791 0.10657 -0.42349 0.17668 0.65482 -1.5817 0.36272 0.067846 0.17749 0.12785 -0.083379 0.22735 -0.22524 -0.01257 0.085115 -0.69279 0.24957 -0.34862 0.77716 -0.23718 -0.26553 -0.48737 0.24168 -0.059668 -0.76408 0.07316 -0.33303 0.35208 0.31835 -0.31079 -1.0806 -0.52446 -0.15624 0.17526 -0.11898 0.25364 0.53177 0.26213 0.13893 0.077329 -0.027029 0.18808 -0.24554 0.18116 0.11178 0.30445 -0.057369 0.15964 -0.12097 -0.59474 -0.017052 0.053883 -0.071006 0.38787 0.13486 -0.30916 -0.45452 -0.043587 -0.80954 -0.089138 -0.3889 -0.4236 -0.25147 -0.3232 0.23913 -0.47169 0.15733 0.29099 0.40943 -0.11011 0.30489 0.37922 0.16055 0.4077 -0.12788 0.0033412 -0.24178 -0.17382 -0.26132 0.19822 -0.2402 0.12303 0.02857 0.26168 0.16251 0.16535 0.25183 -0.24729 0.46851 -0.066522 -0.30782 0.65876 -0.23343 -0.21256 -0.052247 0.13045 0.40227 0.026502 -0.13768 -0.093695 0.33185 -0.31277 -0.27108 0.33613 0.22458 -0.259 0.39129 -0.69933 -0.24227 0.3708 0.55344 0.34727 -0.16335 0.4532 -0.51631 -0.75648 -0.13966 -0.13745 -0.38681 -0.2871 -0.30926 -0.34031 -0.36534 0.35338 0.59302 0.19825 -0.27695 0.65514 -0.46902 -0.41797 0.01345 0.0065762 0.63306 0.12752 0.50002 0.51343 0.27318 -0.019733 0.19658 0.80318 -0.88058 0.31846 -0.20036 -0.50056 -0.50937 -0.038413 0.45302 -0.65458 -0.091285 0.16928 -0.0016814 0.1591 -0.03037 -0.07764 -0.12593 0.080642 0.12017 0.25394 -0.19686 0.48141 -0.26916 -0.16592 -0.44555 0.21244 0.80017 -0.1859 0.48321 -0.069558 -0.4786 -0.011415 -0.58867 -0.30824 -0.39378 0.36736 -0.58614 0.90919 0.38846 -0.10309 0.042584 -0.023158 -0.63451 0.174 -0.45908 0.091141 0.47484 0.2799 0.028124 -0.0097897 -0.054056 0.44254 -0.082074 -0.2642 0.41404 -0.60362 0.19753 0.086183 0.94139 -0.046126 -0.31127 -0.027428 -0.24499 0.05567 -0.049314 0.13516 -0.08455 -0.050684 -0.40425 0.6765 0.0044348 0.37771 0.090351 -0.20186 -0.091746 0.37234 -0.40936 -0.55847 -0.014663 0.11401 -0.353 -0.29153 -0.62974 0.040505 0.29668 0.1436 -0.18562 0.24626 -0.19849 0.059959 0.20316 0.2584 -0.24527 -0.74823 0.14969 0.1015 0.62933 0.44532 -0.37451 -0.027786 0.34104 0.059842 -0.29678 0.57364 -0.13945 0.023388 -0.13487 -0.14723 0.13703 0.31041 0.32074 0.23621 1.1007 0.14303 -0.019874 -0.68843 -0.43042 0.21947 0.059407 -0.21931 0.32607 0.28427 -0.16656 0.36121 -0.37367 -0.10259 -0.21687 0.25596 0.35166 -0.41904 -0.026548 0.40492 -0.26978 0.087275 -2.2189 0.10985 0.7942 0.79188 0.41541 -0.08093 -0.042195 0.45891 -0.19219 -0.24393 -0.39146 -0.18976 -0.11073 0.018964 -0.080939 -0.28095 -0.57089 0.24355 0.27063 0.713 0.47371 -0.53486 -0.14534 0.25644
during -0.039635 0.21261 -0.24514 -0.26663 0.18918 0.099316 -0.37091 0.038365 -0.092625 -1.6565 -0.22016 0.18254 -0.27018 -0.36745 -0.049236 -0.035273 0.39028 -0.1159 -0.59699 -0.28118 -0.11155 -0.13129 0.40255 -0.37045 0.10582 -0.76623 -0.17074 -0.40682 -0.11556 0.11568 0.21444 -0.08659 -0.054054 0.043051 -0.77924 -0.46623 -0.15396 0.41866 0.07136 0.227 0.096133 -0.33026 -0.53325 -0.21461 0.070962 0.121 -0.032633 0.33917 -0.27123 0.68166 -0.36276 -0.027974 -0.22643 -0.081925 -0.0039907 0.22794 0.22772 -0.23448 0.42751 0.066064 -0.20159 -0.50521 -0.17805 -0.52057 0.087372 -0.64687 -0.057821 0.11131 0.13328 -0.12755 0.21155 0.10839 -0.13729 0.1854 -0.32496 0.040501 0.54703 -0.055706 -0.25798 -0.0098696 -0.05189 -0.097522 0.092636 0.73251 0.043136 0.37496 -0.037525 0.11138 -0.027962 0.31302 0.10569 0.10101 -0.3574 0.30839 -0.35866 -0.0011145 0.013346 -0.078431 0.2928 -0.02038 0.21562 0.33321 -0.15901 0.38645 0.26572 -0.17912 -0.34781 0.6318 0.045251 0.038087 0.19539 0.26778 -0.25537 0.26597 -0.097301 -0.45178 0.042517 -0.18637 -0.26729 -0.34848 -0.15264 -0.22499 -0.30513 -0.17987 0.48967 0.58643 -0.34225 0.0021579 0.51831 0.14334 -0.0052828 0.5636 0.34795 -0.34205 0.065216 0.025837 0.084182 0.084106 0.51569 0.53432 -0.0066508 -0.33612 -0.15293 0.17328 -0.17775 -0.0016061 0.74691 0.2106 -0.13296 0.29348 0.57101 0.11539 0.012725 0.347 0.52807 -0.28939 -0.066245 0.32682 0.063126 -0.18324 0.16922 -0.30716 -0.14952 0.012759 -0.0116 0.57357 -0.24607 0.078376 0.06008 0.61023 0.14008 0.38761 -0.54628 -0.090076 -0.20218 0.58066 0.11078 0.00049437 -0.10751 0.81533 -0.047346 0.62987 -0.42795 0.093931 -0.050401 0.34026 -0.023757 0.5211 -0.22773 -0.20013 -0.28108 0.021241 0.038222 -0.25692 0.13453 0.39161 0.17016 -0.34498 0.14693 -0.03949 0.81402 0.15973 0.22878 0.40984 0.34186 0.16242 -0.061922 0.37074 -0.30721 0.02217 0.39666 -0.025238 0.0022253 -0.1525 0.051104 0.021816 -0.092467 0.20513 0.1418 0.088643 0.79412 -0.048703 -0.21484 -0.082888 -0.1806 0.32056 0.13784 -0.47281 -0.14308 0.097225 0.31831 -0.19262 -0.13976 -0.31286 0.12729 -0.40204 0.13666 -0.21596 0.095292 0.026881 -0.094491 0.34214 0.20523 -0.032369 -0.4779 -0.097608 0.26713 -0.16681 0.18887 -0.037269 0.29698 0.054314 0.010994 -0.29705 0.38062 0.063329 0.46899 -0.077691 0.19546 0.18886 -0.50281 0.099352 0.044206 0.25476 0.030103 -0.39271 -0.36905 -0.37922 0.44521 0.022462 -0.23438 -0.028043 -0.17161 0.14856 0.76872 -0.18124 -2.2793 0.050329 0.20104 0.20515 -0.88008 -0.33356 0.59543 -0.29026 0.1617 0.74484 -0.34856 0.33354 -0.24788 -0.15158 -0.14839 -0.020586 -0.69733 0.24895 0.21496 0.35127 -0.14667 -0.14221 -0.46411 -0.15958
before 0.00072964 0.10987 0.063975 0.026729 0.10066 0.04582 -0.17865 -0.14656 0.22387 -1.5851 -0.075385 0.077855 0.071722 -0.020296 -0.21454 0.2964 0.042858 -0.24337 0.28042 0.17027 -0.1532 -0.097088 0.37339 -0.045384 -0.064616 -0.1691 0.0050648 -0.19953 -0.33578 0.082778 0.17225 -0.047207 0.36781 0.12379 -1.373 -0.18022 -0.38348 0.34067 -0.23678 -0.080015 0.26686 -0.047917 -0.31266 0.23985 0.12477 0.19809 0.19034 0.47338 -0.17891 0.30567 -0.23283 -0.053673 -0.17378 0.0076577 -0.20776 0.19245 0.25776 -0.069133 -0.022684 -0.03531 0.099464 -0.15368 0.053919 -0.21117 0.047328 -0.75565 0.2532 -0.010467 0.29713 -0.35141 0.2389 -0.14886 -0.17201 0.32277 0.052221 0.16841 0.15274 0.10318 -0.094077 -0.29853 -0.14237 0.14167 0.01633 0.70759 0.010337 -0.1961 -0.031172 -0.10991 0.085251 0.37595 -0.21433 0.040637 -0.28549 0.018175 -0.72423 -0.027126 -0.37051 -0.24825 0.035146 -0.67382 0.014641 0.27381 0.28638 0.042552 0.108 -0.2637 0.28827 0.21018 -0.39473 0.27689 0.12132 0.36434 -0.2775 -0.092733 0.10183 0.28662 -0.12819 0.0068229 0.1504 -0.50835 -0.46994 -0.037928 -0.47691 0.071952 -0.20737 -0.11811 0.0017807 -0.23231 0.26626 -0.14905 0.29326 0.27275 0.23678 0.03949 -0.25185 -0.055375 0.24752 -0.19385 -0.0084149 -0.014307 0.22474 -0.02461 -0.23926 0.40076 -0.51272 -0.14436 0.27695 0.08227 0.068661 -0.24757 0.42507 0.22664 -0.18653 -0.043632 0.48043 -0.089617 0.01881 -0.49242 0.064408 -0.21429 0.0051046 -0.28138 -0.53148 -0.22077 0.22536 -0.0002346 0.0085929 0.089407 0.31315 0.52977 0.032906 0.098884 0.22752 -0.0731 0.14875 0.15903 0.24308 0.27219 0.36847 0.59367 0.33444 0.043818 0.30799 0.16745 -0.13881 0.36748 -0.67299 0.20823 -0.10111 -0.039205 0.045592 0.21755 0.27761 -0.401 0.13172 -0.30134 0.082822 0.046237 0.092261 -0.19058 1.0164 -0.20298 -0.11006 0.027656 -0.24891 0.15009 -0.17906 0.027268 -0.15739 -0.24873 0.14729 -0.099053 -0.028373 0.22629 0.036326 0.43487 -0.088296 -0.14112 -0.17163 0.13475 0.70793 -0.16193 -0.41599 -0.074613 -0.069784 -0.18842 -0.019429 -0.0093672 0.1575 0.054624 0.48886 0.1471 -0.26071 -0.17827 0.31249 -0.050493 0.37836 -0.052038 0.46875 -0.038366 -0.38053 0.15768 0.023068 0.079606 -0.27397 0.15115 0.41015 0.091888 0.051247 0.2134 -0.029152 0.11501 -0.17685 -0.24483 0.28957 0.06905 0.25991 -0.25018 0.22402 0.30596 -0.20353 -0.091527 0.16728 0.1885 0.21675 0.24021 -0.26373 -0.54292 0.034036 -0.083158 -0.21698 -0.050733 0.13411 0.32378 0.37954 0.028645 -2.2839 -0.16153 0.36115 -0.12518 -0.43655 -0.1981 0.28298 0.0034217 -0.090104 0.55646 -0.1388 0.090241 -0.11196 0.068667 0.12449 -0.14726 0.078155 -0.052333 0.012701 0.17665 0.020622 -0.48125 -0.078685 0.20068
since 0.13211 0.0090394 0.46431 0.1606 0.28924 -0.014632 -0.30926 -0.10292 0.31973 -2.0459 0.10791 0.27123 0.13314 -0.058571 -0.15509 0.048896 0.088392 0.30305 -0.29653 -0.25901 0.05679 0.12644 0.20284 -0.25638 -0.037751 -0.21405 -0.37302 -0.62119 -0.21192 0.30776 -0.045039 0.037847 -0.24712 0.27496 -0.63936 -0.49456 -0.028717 -0.0032215 -0.013735 0.26516 0.32564 0.064728 -0.2351 0.36589 -0.44705 0.17955 -0.11482 0.1549 -0.10383 0.62862 0.31921 -0.23131 0.094226 0.40421 0.24062 0.12679 0.33323 0.077328 0.014605 -0.1576 -0.5275 0.3134 -0.20227 -0.27952 0.034969 -0.87208 -0.14213 0.4555 -0.17681 -0.14652 -0.059761 0.28582 -0.25563 0.38177 -0.22487 -0.068309 0.47532 -0.18094 -0.25252 0.2091 -0.24901 -0.065128 0.0021629 0.23805 0.61618 0.20657 -0.25469 0.035644 -0.17318 -0.028714 -0.27251 0.23214 -0.19296 0.24268 -0.32494 0.1661 -0.21195 -0.14925 0.19067 -0.086262 0.13095 0.31046 0.4036 0.053734 -0.4541 0.010838 0.097573 0.43813 0.010846 0.23252 -0.31916 -0.21865 -0.27982 -0.43122 -0.097152 -0.14188 -0.072048 -0.13806 0.11253 -0.34609 0.1364 -0.26739 -0.039318 0.055201 0.091682 0.20343 -0.2353 -0.019899 0.078946 0.25289 -0.51216 0.48331 0.22851 0.016714 -0.17203 0.25137 -0.040806 0.3659 -0.20925 0.36189 -0.17578 0.07323 -0.27501 0.42202 -0.257 -0.089301 0.18309 0.23126 -0.25148 0.24272 0.60626 -0.22518 -0.16584 0.35556 0.17188 -0.13609 -0.26827 -0.22873 0.092073 0.14638 -0.25929 -0.10668 -0.42344 0.41967 -0.099641 0.2105 0.15299 -0.33949 0.29688 0.25902 0.2193 0.30839 -0.45741 0.33141 -0.062638 0.15704 -0.16822 -0.08904 -0.17336 0.84967 -0.24842 0.55637 -0.11666 0.078291 0.077282 0.26932 -0.57344 0.092956 -0.1903 0.059677 -0.22987 -0.14776 0.14338 -0.35378 0.069867 -0.18014 0.15632 0.41413 0.24466 0.26803 1.2483 -0.062845 0.25827 -0.28591 0.1135 -0.28012 0.012941 0.04744 -0.040006 0.46812 0.11734 0.051114 0.19764 -0.023053 0.51661 0.10501 -0.46826 0.029101 -0.12687 0.014925 0.35634 -0.19759 -0.28962 -0.034161 0.18104 -0.22053 0.22817 -0.04389 0.06151 0.03079 0.16465 -0.19948 -0.24212 -0.32617 0.012706 -0.12972 0.70238 0.20622 -0.073722 -0.12352 -0.3164 -0.19162 0.62095 -0.1027 -0.38708 -0.3003 0.34668 0.13913 0.22665 0.16101 -0.019558 -0.17731 0.10697 0.13216 0.099216 -0.080098 0.50482 -0.24657 0.15839 0.11104 -0.50137 0.33959 -0.16193 -0.17469 -0.33071 0.26133 -0.1274 -0.20476 0.39536 0.0026537 -0.29445 0.57296 0.15895 -0.38139 0.37973 -0.15272 -2.1216 -0.41048 0.18469 0.61325 -0.36356 -0.43427 0.051726 -0.023941 -0.085872 0.11516 -0.65209 -0.029655 -0.15416 0.085021 0.10432 -0.21016 0.26107 0.085519 0.17147 0.85416 0.069214 -0.64911 0.41039 0.080164
while -0.19472 0.18836 0.11739 -0.0018991 -0.18963 -0.067638 -0.13963 -0.036326 -0.016799 -1.482 -0.0027629 0.098703 0.059868 0.15742 0.14054 0.13313 -0.13587 0.079241 -0.057048 -0.33121 -0.10595 0.31271 0.43222 -0.09931 -0.1809 -0.23958 0.070335 0.057132 0.049771 0.16937 -0.14879 0.35118 0.32477 0.063851 -1.2043 -0.38819 0.19153 0.0019014 -0.15201 0.22219 0.13716 -0.042525 -0.33781 -0.10667 -0.14212 0.02588 0.38361 0.36539 -0.04278 0.077897 -0.056149 -0.26875 0.24329 -0.0047278 -0.0023142 0.1245 -0.0049689 0.033361 0.13893 -0.0036135 -0.04082 0.053111 0.38276 0.11413 -0.11556 -0.67151 0.10093 0.016463 0.022443 0.034206 -0.11453 -0.052428 0.030135 -0.059207 0.024909 -0.016277 0.16996 0.19266 -0.24422 0.075231 0.1379 -0.2558 -0.091647 0.23055 0.079488 -0.0055318 -0.011481 0.14759 0.14456 0.086181 0.2894 0.12176 -0.090553 0.22209 -0.057667 -0.32162 -0.32202 0.030178 -0.0632 -0.51 0.025363 0.03158 -0.21081 -0.32171 -0.12988 0.46144 0.20522 0.38018 -0.46028 -0.055502 -0.059889 -0.23684 -0.017002 -0.026099 0.18669 0.19199 -0.14562 0.09659 -0.061454 -0.056896 -0.5113 -0.0032049 -0.10491 -0.044255 -0.37002 -0.21858 -0.1068 -0.22429 0.27597 -0.23302 -0.42686 0.00054869 0.28455 0.021347 -0.054664 0.066111 0.15381 -0.12572 0.2712 0.33996 0.25948 0.18138 -0.032012 0.21576 -0.35938 0.17972 0.099849 -0.28064 -0.033303 -0.084656 0.28755 -0.17199 -0.094199 0.13209 0.44943 -0.19775 -0.51901 -0.04981 -0.0089386 0.050636 0.47966 -0.60549 0.17089 -0.18651 0.036259 0.18433 -0.1224 -0.042995 0.10503 0.24983 0.10062 -0.20852 -0.33951 0.18636 0.09188 -0.028719 0.072556 0.20066 -0.31819 0.65279 -0.10925 0.2003 0.012181 -0.14259 -0.050102 -0.017363 -0.006974 0.16336 -0.080266 -0.17524 0.013976 0.15656 -0.32603 -0.33087 -0.27052 -0.13885 -0.16769 -0.14385 0.24883 -0.10426 0.79906 -0.29098 -0.17864 0.41688 -0.074282 0.077736 0.063283 -0.094733 0.10527 -0.12301 -0.027754 0.13078 0.042556 -0.051533 0.42722 0.24317 -0.20954 0.3454 -0.11758 0.17618 0.30023 -0.098725 -0.05165 0.099928 -0.36114 0.084246 0.19471 -0.15502 -0.15988 0.093713 -0.055386 -0.053721 0.095336 0.33402 0.46005 -0.26252 0.11194 0.30805 -0.16688 0.31467 -0.10996 0.60206 0.23838 0.34277 -0.37964 0.002009 0.5756 -0.21853 -0.15855 0.3427 0.033626 -0.022984 0.29521 0.0050213 0.16369 -0.1908 -0.34195 -0.1934 -0.15975 -0.008415 0.15673 -0.12553 -0.051382 0.11615 -0.060482 0.44293 0.022198 -0.29353 -0.42204 0.21842 -0.077585 -0.10179 -0.030344 0.28122 -0.1029 0.15925 -1.8687 -0.33726 0.086103 0.19028 -0.41232 0.042654 -0.07032 -0.37245 0.026863 0.45806 -0.37607 0.53417 0.11403 -0.2373 0.025681 0.024612 -0.035385 0.022309 0.26702 0.4179 0.0064943 -0.38294 -0.25358 -0.12843
because 0.15859 0.16861 -0.061036 -0.13251 0.12573 -0.038778 0.22693 0.36409 -0.07907 -2.2166 0.18187 -0.27144 -0.18112 0.00014013 -0.069676 -0.24638 -0.078672 -0.12765 0.027906 -0.20054 0.095348 0.18524 0.21183 -0.28266 -0.40318 -0.12407 -0.025046 -0.337 -0.31046 0.26917 0.085745 0.49854 -0.27834 -0.16202 -0.99077 0.020962 -0.27032 -0.1623 -0.040149 0.077511 0.034161 -0.22196 -0.069783 -0.147 -0.10129 -0.045976 -0.0052715 0.092695 0.11254 0.28461 0.3739 -0.44853 -0.1863 -0.099241 -0.29861 0.085749 0.068909 0.1222 0.27774 0.2647 -0.032545 0.23117 0.084048 0.26992 -0.26757 -0.45759 0.18645 -0.004423 0.066206 0.027371 -0.071587 -0.038328 0.088574 0.25699 0.12443 -0.28721 0.30753 0.25374 -0.39824 0.12197 -0.32017 -0.20461 0.024543 0.14083 0.067306 0.0039399 0.17899 0.13942 -0.018511 0.33608 -0.4675 0.39656 -0.28565 -0.21892 0.031729 0.11233 -0.3 -0.015834 0.0014349 -0.37935 0.17794 -0.16643 -0.047506 -0.030711 -0.096822 0.18323 0.047509 0.06462 -0.42951 0.39963 -0.34783 -0.15204 0.012407 -0.28043 0.36396 0.18526 0.053171 -0.13769 0.020835 -0.12983 0.065959 -0.32494 0.22135 0.063805 0.35643 -0.031089 0.167 -0.02226 0.1705 0.11017 0.085062 0.37647 0.35557 -0.16193 0.12835 -0.065938 -0.067525 -0.14773 0.067699 0.075703 0.029848 0.20723 0.093799 0.1698 -0.41508 -0.42411 0.042671 0.030737 -0.14206 -0.076477 -0.24205 -0.33462 0.089334 -0.066112 0.13268 -0.01728 0.090628 -0.04537 0.19166 0.12041 0.18464 -0.31324 -0.0086093 0.21635 0.13919 0.016948 -0.06006 0.036297 -0.0079518 0.072327 0.14366 0.39135 -0.77727 0.014022 0.02741 -0.11117 0.19975 0.061354 0.040834 0.58666 0.24601 0.1985 0.1038 -0.051546 -0.099273 0.037535 0.095608 0.060896 0.10442 0.13921 -0.24064 -0.15531 0.19218 -0.14179 -0.049189 -0.37684 -0.1506 -0.09141 0.071858 -0.17901 0.95665 -0.31286 -0.13743 -0.17724 0.10173 0.092495 0.19229 0.0048767 0.11088 -0.1666 -0.09561 0.028059 0.33924 -0.045536 0.0048779 0.073333 -0.10918 0.11414 0.21494 -0.016714 0.23836 -0.28834 0.056583 -0.096842 0.2118 0.0035476 0.1743 -0.013474 -0.15318 -0.025126 0.11219 -0.10967 -0.063199 -0.10066 -0.22507 -0.091152 0.21927 0.03937 0.17478 -0.11444 0.22411 0.031559 0.4858 -0.10723 -1.1691 -0.027362 0.10764 -0.058098 0.015672 -0.19186 0.14488 -0.049877 -0.36614 0.071572 0.2971 0.028045 -0.26438 -0.18119 0.14516 -0.18375 -0.25181 -0.044507 -0.039211 -0.023527 0.041456 -0.0031244 0.071724 -0.11293 -0.10664 0.051202 0.20399 0.18632 -0.059344 -0.020985 -0.082635 0.19032 -2.4036 -0.17126 0.31923 0.58825 -0.38747 0.22849 0.092061 0.28676 -0.11393 0.13976 0.14658 0.10729 -0.081268 -0.19328 0.14043 -0.24126 0.28548 0.10773 0.10256 -0.27882 0.062751 -0.41687 0.045114 0.037932
like -0.13443 -0.016333 0.091076 -0.13512 0.27852 0.29178 -0.21126 0.10574 -0.07968 -1.5067 0.50515 -0.087474 -0.21819 -0.040844 0.14312 -0.082217 -0.53797 0.05623 0.32709 0.44037 0.28488 0.47748 0.62411 0.18072 -0.38929 -0.073252 -0.0059524 -0.35452 0.050842 -0.040571 -0.15548 0.43679 -0.4263 -0.26487 -1.11 0.11987 0.019721 0.14673 -0.12203 0.031591 0.077677 -0.32079 0.20393 -0.19557 -0.21029 -0.049291 0.25355 0.22433 0.010408 0.089587 0.36061 -0.53265 0.41946 0.27511 -0.10123 -0.15867 -0.18442 0.23568 0.27679 -0.13319 0.46762 0.040378 0.52146 0.31122 0.0098751 -0.022798 0.0011311 0.5412 0.20078 0.16353 -0.12131 -0.064532 -0.19713 0.20096 0.19576 -0.19618 -0.0043751 0.19402 -0.08638 -0.12761 0.24931 -0.0256 -0.092533 -0.22999 0.099159 0.12469 -0.13303 0.72458 0.16824 -0.13489 -0.15984 0.73847 -0.097546 -0.23225 -0.089774 -0.12451 -0.20881 -0.36301 0.17261 -0.26265 0.20784 0.11085 -0.19082 -0.15476 -0.33242 0.13823 -0.17197 0.25725 -0.29254 0.14508 -0.066827 -0.33656 -0.06018 -0.11604 0.4364 0.36187 -0.11322 0.3354 -0.22812 0.077527 0.073715 -0.58608 0.1874 0.22854 0.17046 -0.19908 -0.30228 0.45081 0.1603 -0.036753 0.29221 -0.060825 0.21799 -0.026588 0.10468 -0.27298 0.037424 -0.0044505 -0.25896 0.31922 0.2628 0.15888 0.3198 0.37559 -0.13872 0.17042 0.10065 0.078357 -0.014909 0.044071 -0.24325 -0.16158 -0.012374 -0.27028 0.033992 -0.032562 -0.059195 -0.23288 0.41683 -0.059207 0.22018 -0.12118 -0.2038 -0.24329 -0.26297 0.085991 0.0064638 0.22861 0.19537 -0.0012901 -0.045607 0.23671 -0.64782 0.29687 -0.21052 -0.42113 -0.059717 0.26027 0.033373 0.030416 0.23425 0.042591 0.49488 0.032922 0.15544 -0.31879 0.0021988 0.11559 0.13348 -0.25235 0.19248 0.053158 -0.11348 0.077442 0.012753 -0.04966 0.23384 -0.098939 0.10033 -0.1115 1.4006 -0.24893 0.22823 0.017223 0.091787 -0.10686 0.013698 0.009888 -0.023554 -0.22982 -0.26896 0.32429 0.34131 -0.33465 0.14921 0.053536 0.16791 -0.010294 -0.23161 -0.34258 0.18642 0.1435 0.095819 -0.14587 0.17523 0.13067 0.19919 0.28649 -0.12757 -0.29474 -0.25396 0.13178 -0.1317 -0.030551 0.26526 0.30241 0.43568 0.058245 -0.25201 -0.31006 0.060397 0.023978 -0.19905 0.22073 -0.57367 -0.11778 -0.28104 -0.011827 -0.27985 -0.018071 0.31566 -0.23372 -0.24394 0.35835 0.48492 0.017522 0.083414 -0.42077 -0.39068 -0.25228 0.13648 -0.15763 0.65683 -0.20055 0.17794 0.071179 -0.5043 -0.091564 -0.10302 0.61491 0.018185 0.11858 0.10756 0.077765 -0.16541 0.24248 -2.2639 -0.42391 -0.19102 -0.30528 -0.36999 -0.088976 0.064001 0.0082633 -0.017181 0.3676 0.017039 0.063698 -0.068058 -0.26708 0.12756 -0.25388 -0.20297 -0.0039839 -0.088324 -0.3185 0.20845 -0.27469 -0.059464 0.49494
between -0.32726 0.1603 0.23996 -0.22077 -0.15336 0.11633 -0.20333 -0.40123 0.63478 -1.9992 -0.5358 0.45069 -0.51012 -0.54355 0.077173 0.42296 -0.055716 -0.034727 -0.52976 0.079063 -0.14894 0.087876 0.04775 0.08631 0.021141 -0.39143 -0.24628 -0.61646 -0.3747 -0.033589 0.069092 -0.033616 -0.38148 0.59609 0.010311 -0.28502 0.19989 0.0015245 -0.45441 0.16047 -0.003506 -0.20501 -1.1061 -0.18612 0.27874 0.083068 -0.12353 0.187 -0.32051 0.20351 -0.04796 -0.23285 -0.49531 -0.50187 -0.10881 0.14844 0.095299 0.16125 -0.27467 0.17515 0.48866 0.019627 -0.039557 -0.73358 0.33146 -0.60504 -0.26494 0.14439 -0.31038 0.1681 -0.32778 0.37744 0.27467 -0.49857 -0.084998 -0.039194 -0.053281 -0.37434 -0.58302 -0.35191 -0.20366 -0.50574 0.20067 0.16564 -0.35118 -0.27724 0.032253 -0.31479 0.20207 -0.030547 -0.027962 0.52294 -0.15156 0.27748 -0.012446 0.13131 -0.0091067 0.21851 -0.20184 -0.30747 -0.052899 -0.18338 0.070063 -0.38818 -0.029858 0.61674 0.13459 -0.02928 0.12634 0.19883 -0.21835 -0.94339 0.098547 -0.34768 0.15623 -0.050046 -0.21719 0.33539 -0.02507 -0.14844 0.031714 -0.12864 -0.36917 -0.64999 -0.3758 0.25712 0.64282 0.24105 0.56596 -0.59428 -0.59959 0.1364 -0.059941 -0.073985 -0.12716 -0.52147 -0.2612 -0.20451 0.406 -0.32075 -0.56126 -0.14124 -0.16932 -0.14273 -0.4747 0.11575 0.24977 0.041266 -0.59689 -0.16517 0.38455 0.41633 0.094057 0.14014 0.45204 -0.48221 0.32041 0.31771 0.15222 0.047332 0.086912 0.23834 0.17864 -0.16972 -0.18866 0.62694 -0.25397 -0.15037 -0.039684 0.26522 -0.0098064 -0.12692 -0.92325 0.27994 -0.20739 0.080757 -0.55409 -0.33801 -0.8656 0.38788 0.26238 0.15683 -0.53922 0.30544 0.043619 -0.27562 -0.29435 0.033478 0.27324 0.44961 -0.35523 0.3414 0.30966 0.20116 -0.089876 -0.15864 0.038017 -0.26356 -0.27055 0.14397 1.2701 -0.21427 0.55565 -0.21782 0.30082 -0.078539 -0.082626 -0.09873 0.23308 -0.044561 0.25297 0.52435 0.3115 0.33389 0.45901 0.11276 0.25643 0.063373 -0.26653 0.1325 0.81067 -0.31783 0.30108 0.094433 -0.27277 0.13207 0.31632 -0.231 0.11835 0.56033 -0.35991 -0.22647 0.0026027 -0.45269 0.49521 -0.13006 0.28472 0.21866 0.1318 0.11234 -0.59118 -0.36286 0.6802 0.2535 -0.93928 -0.022856 0.0041145 -0.13159 0.88331 -0.33015 0.00084498 -0.36553 0.028666 -0.18023 -0.33247 -0.16239 0.24224 -0.33874 0.57519 0.899 0.55412 0.060101 0.26167 -0.21934 -0.00037891 -0.087636 -0.035604 -0.099022 0.33029 0.077989 0.048429 0.45114 0.30703 0.13778 0.31009 0.050191 -1.4557 -0.072356 0.66672 0.29956 0.022877 -0.04882 0.2141 -0.088441 0.036355 0.32421 -0.037699 0.22631 -0.31432 -0.037186 -0.18426 -0.20811 -0.12042 -0.23748 0.31806 0.68786 0.17419 0.1795 0.191 -0.10871
under -0.37982 -0.42583 0.13359 -0.3203 -0.098539 -0.0045322 -0.37299 0.26567 0.44311 -2.1267 -0.22358 0.1775 -0.38041 0.0030329 -0.16624 0.59694 -0.36125 0.27361 0.25781 0.088729 0.52586 -0.0087355 0.30813 0.26487 -0.27532 0.050809 -0.52893 -0.072196 0.086527 0.076436 -0.14551 -0.27065 0.14205 0.22052 -0.47083 -0.33271 0.098876 -0.11566 0.10044 0.19266 0.044068 0.097981 -0.07468 -0.19267 0.10929 0.13598 -0.099867 -0.057744 -0.41685 -0.23388 -0.018827 -0.4161 0.19809 -0.093235 0.46049 -0.25544 -0.011454 0.16696 0.44682 -0.17012 0.1072 -0.027858 0.2069 0.44108 -0.22483 -0.09715 -0.14252 0.19205 -0.67214 -0.58622 0.47821 0.40777 -0.4591 -0.32416 -0.2878 -0.0017069 0.098077 0.10722 0.4095 0.0036562 0.059499 -0.39297 0.13793 0.21762 -0.10294 0.35588 -0.18928 0.60353 -0.027922 -0.01721 -0.7068 0.11591 -0.019036 0.72807 0.25711 0.13005 -0.29115 -0.083221 0.010241 -0.04441 0.17892 -0.050357 -0.23451 0.044166 -0.23373 -0.38824 0.013437 0.59286 -0.11967 -0.11584 0.66408 -0.41785 -0.11473 0.11031 -0.25325 -0.17238 -0.37235 -0.095852 -0.064795 -0.41331 0.028905 -0.00020801 0.006476 0.32817 0.51694 -0.0079742 -0.3088 0.17357 0.28962 0.63936 0.31672 0.2744 0.76972 -0.045107 0.31622 0.24357 -0.16354 -0.25904 -0.16421 0.2747 -0.17532 0.3469 0.19133 0.075697 -0.21905 -0.15541 0.31305 0.11857 0.29135 -0.22955 0.8158 -0.082788 0.12365 -0.43034 0.34789 0.33161 -0.2377 -0.26543 -0.058065 0.27456 -0.021253 -0.068206 -0.20922 0.15166 -0.51739 -0.64964 -0.033391 0.095635 0.079974 0.43685 0.49096 0.1005 -0.41483 0.04995 -0.12141 0.38543 0.047604 0.4797 -0.23541 0.40787 0.24656 0.38467 -0.26203 -0.09181 0.37664 -0.46854 -0.58759 -0.14608 0.25043 0.050222 0.53738 0.019972 -0.017687 -0.14993 -0.36812 -0.43491 -0.087249 0.4291 0.59 -0.17721 0.75206 0.33573 -0.12201 -0.27871 0.52525 -0.024187 0.208 -0.013508 0.32877 -0.16705 -0.15539 -0.3793 0.001263 -0.25363 0.31779 -0.19687 0.055862 0.38949 -0.034687 0.19234 0.64082 -0.19859 0.035201 -0.091555 -0.26518 0.18704 0.55728 0.19508 -0.0014824 -0.03834 0.37266 -0.38455 0.29201 -0.33234 -0.1069 -0.33697 -0.72169 0.12058 -0.01097 0.20433 -0.31361 -0.47311 0.4517 0.3945 -0.92944 0.06173 0.53977 -0.53327 -0.18167 -0.46923 0.041119 0.42143 0.60651 -0.22774 0.42056 0.018086 -0.058624 0.39177 0.046594 0.39354 0.0033003 0.040935 0.38583 0.12123 -0.17794 0.15402 -0.0519 0.19071 -0.32156 -0.40371 -0.26881 -0.64906 0.2359 0.38632 -0.015993 -0.20065 -1.9058 -0.27575 0.060469 0.65948 0.027542 -0.36809 0.1217 -0.062134 0.22274 0.40187 -0.51756 0.13424 -0.06326 -0.49719 -0.022833 0.104 0.1838 -0.032944 0.038159 0.57582 0.12261 -0.17073 -0.28485 0.14657
through -0.42301 -0.34789 -0.017414 0.23371 0.35301 0.14809 -0.23765 -0.29712 0.1551 -2.0572 0.15142 -0.21666 -0.29204 -0.48958 -0.39965 0.20406 -0.56701 -0.2175 0.27819 0.52489 0.037481 0.050135 -0.1218 0.40266 0.10624 0.074617 0.093617 0.11216 -0.17106 0.33981 0.29533 0.16382 0.06798 0.35228 -0.6059 0.042024 0.027426 -0.0015247 -0.16329 -0.23054 -0.037319 -0.15543 -0.69496 -0.25625 0.18392 0.38809 0.46647 0.57096 0.066329 0.00067964 -0.22783 0.44401 0.56412 -0.50192 -0.035453 -0.17846 0.13229 -0.04111 -0.22168 -0.064858 0.34108 0.17408 0.12261 0.037193 0.17701 -0.041944 0.24214 0.11948 0.1118 -0.44421 0.37955 -0.15811 -0.0021457 0.30085 -0.066203 -0.24533 0.086037 -0.26558 0.46655 -0.0044932 -0.016704 -0.23116 0.53073 0.0054816 -0.11243 -0.011624 -0.27655 0.062236 0.37527 0.062395 -0.33233 -0.17069 -0.17349 0.34764 0.13234 -0.18125 -0.302 0.20758 0.62534 -0.15261 0.68685 0.47341 0.090527 -0.35496 -0.14523 -0.088032 0.19541 0.14061 0.042461 0.046976 0.33355 -0.4657 -0.1587 -0.045391 -0.21344 0.21506 -0.17543 0.25112 -0.11924 -0.15983 0.066943 -0.03553 -0.086328 -0.47448 0.053056 -0.04762 -0.11123 -0.21831 -0.016058 -0.14501 0.29316 0.22664 0.66228 0.15371 0.16059 0.32818 0.023716 0.48847 -0.072411 0.17582 -0.15439 -0.17968 -0.38047 0.2696 -0.32167 0.092116 0.22061 0.1648 -0.30363 -0.30464 0.49485 0.12062 0.1457 -0.20701 0.95453 0.22421 0.32303 -0.52924 -0.23631 -0.14774 -0.43446 -0.6073 0.068354 -0.34418 -0.095234 -0.13574 0.22523 -0.14651 -0.087549 0.29916 0.16192 0.0031381 -0.53405 0.1718 -0.5112 0.12686 -0.67177 0.09904 0.0072124 0.54048 0.23008 0.071579 -0.15555 0.45984 0.097799 -0.045296 -0.36946 0.092589 -0.044661 -0.022979 -0.50105 0.35339 -0.039084 -0.15742 -0.066817 0.09041 0.33286 -0.036032 -0.091275 0.015447 0.99234 0.03834 0.31722 -0.26416 0.24069 0.13573 -0.62354 0.1592 -0.20706 0.28687 -0.020799 0.042075 -0.12069 -0.051027 -0.087585 0.069577 0.49745 0.28001 0.0082295 0.13713 0.54185 0.12179 -0.5538 -0.30578 0.057836 0.066781 -0.26356 -0.36493 0.19383 -0.19832 -0.17001 0.16718 -0.015851 -0.51026 0.34789 0.037152 0.44055 -0.11388 -0.31302 -0.069282 0.15335 0.14581 0.0191 -0.22972 -0.90012 -0.50969 0.59434 0.12941 0.52051 0.23093 0.32669 -0.34792 0.12889 -0.35749 0.1281 -0.28085 0.039677 0.062733 -0.044232 0.47563 0.37842 -0.098428 0.43071 0.013278 -0.097169 0.15346 -0.34221 -0.69192 -0.43873 -0.0076242 -0.16451 -0.076278 -0.060308 0.23871 0.074875 -0.20692 -2.187 -0.19272 0.30658 0.036359 -0.51712 -0.4285 0.34275 0.34286 -0.042821 0.39198 0.22891 0.042991 -0.22967 -0.31676 0.22946 0.086537 -0.28204 0.55549 0.31667 0.47723 0.05679 0.018702 0.064066 -0.12594
off 0.34501 -0.22298 -0.17511 -0.020284 0.35048 -0.070979 -0.58004 0.049253 0.36389 -1.6708 0.24868 0.34327 0.11541 -0.4938 0.20786 0.74408 -0.12877 0.0011783 0.16746 0.2468 0.0088721 0.088796 0.20904 -0.45111 -0.14154 -0.20267 -0.081471 0.16355 -0.42679 0.080259 0.27764 0.28051 0.015878 -0.15124 -1.4832 -0.047263 -0.060326 0.092827 0.039816 0.2411 -0.29409 -0.0769 -0.14011 -0.044251 0.15527 0.36572 0.55434 -0.1918 -0.35427 0.23252 -0.043045 -0.3077 0.30422 -0.17112 -0.35097 -0.09997 -0.11784 0.10441 -0.50621 0.057115 0.16439 -0.14759 0.32936 0.0016374 0.1275 -0.47707 0.32797 0.2221 0.305 -0.45371 -0.0081291 0.092012 0.40807 0.081736 -0.034496 -0.050287 0.36665 0.01627 0.41869 -0.0086663 -0.053911 -0.086582 0.095769 0.41884 -0.15464 -0.30211 -0.051235 0.16647 0.33218 -0.022704 0.26728 0.24327 -0.22843 -0.56381 -0.0973 -0.12302 -0.38222 0.012361 -0.095825 -0.32399 0.14655 0.41492 0.097459 0.10794 0.1847 -0.48645 0.08 -0.12834 -0.29791 0.22914 -0.16578 -0.54165 -0.19128 -0.34372 0.18911 0.80755 -0.20843 0.29293 0.27019 -0.56923 -0.17694 -0.54107 -0.59685 -0.12257 0.12753 0.17896 0.21984 -0.22375 0.2113 -0.43706 0.32976 0.51974 -0.091846 -0.52556 0.11518 -0.0030462 0.22849 -0.17033 0.013723 -0.34223 -0.095258 -0.074159 0.070102 0.15329 -0.85884 0.17552 -0.053513 -0.015112 0.30666 -0.24112 0.6315 -0.11825 0.025662 -0.11086 0.37857 0.18416 0.2248 -0.070698 0.28545 0.059058 0.35859 -0.43007 -0.2803 -0.36657 0.0020376 -0.22674 0.50026 0.38799 0.4482 0.18903 -0.20519 -0.19221 -0.13123 -0.15826 -0.010715 -0.10904 0.069446 0.54966 -0.20484 0.45858 0.17692 0.1145 0.61526 -0.15969 -0.26784 0.15241 0.14187 -0.0049072 -0.053488 0.18172 -0.20074 0.15459 -0.18178 -0.18751 0.44337 -0.12872 -0.75657 -0.64809 0.079522 -0.3101 1.4972 -0.024049 -0.14208 0.14965 -0.13669 0.37634 0.035905 -0.31167 0.35939 -0.41967 -0.21458 0.032055 -0.16885 -0.085013 0.29951 0.20687 0.26506 -0.21482 -0.21641 0.020333 0.72805 0.31131 -0.22133 -0.2219 0.034302 -0.1399 0.4298 -0.59396 0.14214 -0.054308 0.3508 -0.13615 -0.40334 0.13674 0.35903 0.19079 0.16167 0.076988 -0.019078 -0.1404 0.38396 -0.053583 -0.19143 0.15314 -0.5531 0.02146 0.34843 0.1665 0.057274 -0.19474 0.15446 -0.18823 0.14066 -0.30672 0.55719 -0.32543 0.076185 -0.68686 -0.32824 0.21093 0.14756 -0.33762 -0.20863 0.33744 0.039672 0.11193 0.14407 -0.28411 -0.17542 0.18462 0.45079 0.14223 -0.25642 0.16434 -0.14532 -0.25149 -1.9989 -0.20094 -0.32511 -0.16913 -0.18417 0.60844 0.25677 0.12251 -0.24091 0.29883 -0.16428 -0.4375 0.44111 0.11856 -0.061509 0.13466 0.1069 -0.23398 -0.33152 0.49235 0.15185 -0.40417 0.25 -0.13828
next -0.49372 0.12651 -0.23841 -0.13406 -0.0035628 0.27648 -0.13437 -0.24972 -0.15116 -1.2003 0.24062 -0.059099 0.23713 -0.16918 0.023382 -0.074111 -0.2072 -0.19681 0.080793 -0.24066 -0.087792 0.23653 0.13259 0.040715 0.0016225 -0.046941 0.29102 -0.10759 -0.0599 0.085365 0.25681 0.030924 0.31615 0.46992 -1.3249 0.36564 -0.28753 0.063909 -0.43275 0.13062 0.23632 -0.25982 -0.48942 -0.086445 -0.1144 -0.24356 0.19725 0.12417 -0.50708 -0.017826 -0.11774 -0.44309 -0.2188 -0.039521 -0.12501 0.10136 -0.13024 0.32696 -0.040206 0.14322 -0.18873 -0.18468 0.0695 0.010883 -0.082725 -0.47113 0.2611 -0.12311 -0.22229 -0.30668 -0.02546 0.53966 0.016646 -0.070856 -0.016483 -0.16229 -0.20731 -0.19367 -0.22232 -0.3 -0.10068 0.013528 -0.065056 0.33573 -0.0010282 0.033123 -0.51784 0.32699 0.18522 -0.023771 0.0073982 -0.168 -0.24692 -0.5195 -0.51352 0.03695 -0.64018 0.004508 -0.30982 -0.70357 -0.12729 0.074466 -0.25465 -0.10138 -0.035789 -0.011393 0.26606 -0.10089 -0.31471 -0.0054629 -0.10297 -0.32488 -0.53043 -0.05523 -0.25727 0.22213 0.11614 0.092736 0.273 -0.20868 -0.2204 -0.17623 -0.2947 0.1282 -0.074065 0.072188 0.15784 -0.13214 0.3381 -0.027056 0.1764 0.38384 0.14887 -0.10449 -0.055697 0.0084304 0.10161 -0.10182 0.16346 0.040493 0.13085 -0.0040963 0.12967 0.073199 -0.66739 -0.037723 -0.13125 0.31105 -0.30111 0.0067149 0.25432 0.29517 -0.2015 -0.21597 0.40102 -0.13248 -0.24881 -0.15936 -0.44685 0.11531 -0.20557 0.27379 -0.44625 -0.057814 0.17703 0.011179 -0.080821 0.24599 0.19476 0.31444 0.11055 0.46509 -0.24497 -0.46773 0.023224 0.18423 0.17605 0.27748 0.049496 0.50321 0.36934 0.12645 0.27771 0.071606 0.28734 0.29441 -0.48331 0.29504 -0.29078 0.068446 0.093298 0.41992 -0.0187 -0.11266 0.0085257 -0.16833 0.16579 0.24923 -0.0082031 -0.17422 1.446 -0.08411 -0.2146 0.04082 -0.17394 -0.29221 -0.10082 -0.21382 -0.18031 -0.35998 0.27579 -0.23792 0.20827 0.014526 -0.1604 0.1415 -0.17775 0.071067 0.21902 -0.26893 0.57877 -0.12851 -0.51212 0.54597 0.04933 -0.037318 0.20293 0.12252 -0.11012 0.07583 0.17077 0.021848 0.17051 -0.040847 0.54156 0.17742 0.3236 -0.014738 0.54264 -0.010509 -0.0094648 -0.047286 0.21627 0.11317 -0.45823 0.14546 0.32413 0.073075 0.00090137 0.090108 -0.093262 0.044987 0.021151 0.0048514 0.060848 -0.016574 0.12727 0.088733 0.22816 0.27137 0.38971 -0.038506 0.29636 0.051082 0.15015 -0.42231 0.1806 -0.054612 0.26009 -0.17005 0.11735 -0.027335 0.19176 0.18358 0.32308 0.21363 -2.3754 0.083222 0.59157 -0.18025 -0.50938 -0.061412 -0.28884 0.025571 -0.28483 -0.038254 0.1357 0.06505 -0.41452 -0.09017 0.091166 -0.11794 0.050629 -0.031206 -0.2748 0.48873 -0.072387 -0.42523 -0.4086 0.23983
around -0.46957 0.0008946 -0.030859 -0.10772 -0.025968 0.40818 0.21877 0.38224 0.10542 -1.6418 -0.11361 0.29112 0.057045 0.19972 0.29161 0.36645 -0.45657 0.45424 -0.093902 0.33172 0.29906 0.33822 0.28111 -0.14231 0.18127 -0.0048562 -0.11254 -0.024092 -0.25464 0.50679 0.09807 0.16323 -0.48159 0.55863 -0.67272 -0.025186 0.16396 0.46568 -0.088058 -0.11493 -0.11429 -0.58139 -0.2528 -0.14828 -0.059308 0.065777 0.68578 -0.17532 0.11499 0.51602 0.12799 -0.24314 0.039299 -0.22711 0.021035 -0.11355 0.22614 0.44653 0.045858 0.39294 0.32922 -0.32318 0.016753 0.0031543 0.33116 -0.36724 -0.18486 0.13435 -0.27463 -0.443 0.1194 -0.21831 -0.10149 -0.039836 -0.071448 -0.046975 0.61041 -0.12065 0.25633 -0.28653 0.10036 -0.51714 -0.06605 0.38137 -0.22724 0.27829 -0.079136 -0.070728 0.079622 0.16471 0.37691 -0.021869 -0.090739 0.095307 -0.38116 -0.10912 -0.29359 0.26243 0.16319 -0.1046 0.066199 0.63899 -0.38375 -0.042407 -0.27142 -0.16052 0.59565 0.10137 -0.4329 0.48108 -0.51071 -0.88633 -0.50043 -0.25798 -0.088804 0.14632 -0.14803 0.35881 0.0054618 -0.37817 -0.17291 -0.31032 0.066154 0.27388 -0.27017 0.4255 -0.074769 0.3093 0.29638 -0.31803 -0.19336 -0.027039 0.12561 -0.14803 -0.3148 -0.018404 -0.25573 -0.42297 0.040748 -0.19076 -0.68351 -0.28184 -0.27021 0.070201 -0.29012 -0.26594 -0.19717 -0.32002 0.004742 -0.11524 0.66002 0.11378 -0.11148 0.12087 0.52162 -0.11791 -0.12992 0.17081 0.085391 -0.088346 -0.33455 -0.3502 -0.2521 -0.16002 -0.032652 -0.25876 -0.28 0.29041 0.30186 -0.12489 -0.21711 0.072359 -0.083752 0.20234 0.23777 -0.30112 -0.61765 0.063973 -0.26549 -0.0015493 -0.20187 -0.11446 0.07701 0.012621 0.39114 -0.078945 0.14867 -0.082292 0.14964 0.0035121 -0.16081 0.33898 0.063856 0.11834 0.037017 -0.48373 -0.29696 -0.2429 0.18681 -0.29324 1.1367 -0.023677 0.18757 0.48279 0.18126 0.23252 -0.077086 -0.55901 0.22912 0.085153 0.12827 0.073527 0.41536 -0.53659 -0.15582 0.21127 -0.24388 -0.047174 -0.51105 0.026235 0.57877 -0.31276 -0.022623 0.34985 -0.00067258 0.39366 0.16103 -0.24987 -0.033135 -0.15761 0.47069 0.11496 -0.072839 -0.37784 0.43006 0.025612 0.13544 0.20336 -0.22272 -0.089771 -0.030333 -0.028015 0.2571 0.29257 -0.69646 -0.47223 -0.045088 0.01386 0.099043 0.65537 -0.063895 -0.17641 0.61458 -0.065554 0.76945 0.27868 0.2371 -0.25005 0.22105 0.051411 0.85018 0.27484 0.11964 -0.1161 0.069383 -0.41381 -0.2626 -0.12426 0.20935 -0.061349 -0.15232 0.14183 0.3209 0.1162 0.21903 -0.17933 -2.1543 -0.41776 0.082 0.20642 -0.34403 -0.12276 -0.075667 -0.065374 -0.26922 0.39005 0.19948 -0.015338 -0.22481 -0.043952 0.57373 -0.22768 -0.38881 0.24021 -0.081779 0.14049 0.036649 0.18405 -0.11023 -0.31083
until 0.045036 -0.16202 0.40175 -0.032719 0.1572 -0.20164 0.11272 -0.18388 0.23338 -1.866 -0.24063 -0.10733 0.32197 -0.13986 -0.089932 0.090911 0.17998 -0.082335 0.10885 0.14642 0.18629 0.0903 0.23985 -0.092648 -0.22982 -0.09604 -0.22478 -0.14551 -0.63602 0.010182 0.19549 0.1539 0.27101 0.3066 -0.77808 -0.012936 -0.094754 0.5598 -0.091743 0.4169 0.32052 -0.16783 -0.38866 0.057574 0.55271 0.02873 0.37318 0.12594 -0.10319 0.56989 0.19238 0.16118 -0.31688 0.096338 -0.13054 0.14427 0.25569 -0.047262 0.1041 0.077875 0.38153 0.099809 -0.3366 -0.0046954 -0.037398 -1.0308 0.64525 0.17329 0.0017287 -0.65811 0.1099 0.026637 -0.41969 0.63274 -0.38619 0.41456 0.048929 0.17522 -0.30859 -0.35523 -0.28982 0.14434 -0.068197 0.83064 0.16496 -0.075533 -0.24361 -0.01187 -0.26174 0.24766 -0.464 -0.6597 -0.0063474 0.16184 -0.72446 0.352 -0.44008 0.0019394 -0.010263 -0.22688 0.34657 -0.22215 0.17065 -0.027966 -0.085701 0.0039456 0.030363 0.0078819 -0.081806 0.70096 0.097739 -0.008685 -0.37554 -0.15859 -0.64059 -0.058521 -0.55524 -0.041233 0.57694 -0.25888 -0.32677 -0.028278 0.0060491 -0.273 -0.29134 -0.12694 -0.037511 0.31902 -0.094586 0.68541 0.22127 0.69529 0.5253 -0.20986 -0.38153 -0.057761 0.070692 0.046539 -0.03339 -0.30906 0.26777 0.30777 -0.52729 0.42071 -0.17573 -0.49824 -0.032653 0.34253 -0.17758 -0.1313 0.27615 0.32474 0.028333 0.079507 0.67497 -0.59253 0.11375 -0.60623 -0.31454 -0.035063 -0.31402 0.062418 -0.28815 -0.24877 -0.15102 -0.14082 -0.26919 0.066206 0.19081 0.48074 0.069473 0.33762 -0.20761 0.39306 0.036811 0.27524 0.13597 -0.26066 0.19136 0.40017 0.094899 0.43567 0.13474 0.1794 0.50635 0.11685 -0.36628 -0.086758 -0.48732 0.073417 -0.0012238 0.80466 0.39235 -0.39311 -0.00084654 -0.54508 -0.20691 0.54197 0.37727 -0.33529 1.0114 -0.20139 0.23978 -0.038518 0.052098 -0.074899 0.26149 -0.37683 -0.32519 -0.23571 0.62942 -0.5661 -0.25374 0.17596 -0.34857 0.23447 -0.35531 0.063234 -0.27487 0.08812 0.45486 -0.36389 -0.29291 -0.26114 -0.18195 -0.057569 0.1003 -0.32059 0.20369 -0.17246 0.49341 -0.10014 0.087421 -0.44124 -0.045412 0.1337 0.33803 0.13058 -0.0089182 -0.28339 -0.33827 -0.40504 0.54403 0.11187 -0.71736 0.11813 0.85711 -0.1254 -0.021845 -0.45049 -0.19875 0.14983 -0.14505 0.3715 0.30385 0.20374 0.43173 0.22662 0.17006 0.41108 -0.44447 -0.3494 -0.17627 -0.16446 -0.25077 -0.29542 0.013784 -0.37367 0.083342 -0.074837 -0.10887 0.14572 -0.053223 0.22504 0.49595 0.014406 -2.0235 -0.39581 0.16585 0.17042 -0.32702 -0.26801 -0.0053486 0.11898 0.19572 0.49112 0.041823 0.24941 -0.36564 -0.02091 -0.19726 -0.091085 0.11299 -0.27518 -0.31793 0.38411 -0.13679 -0.5061 0.070201 0.31148
among -0.28593 0.35877 0.46894 -0.21989 0.078317 0.43757 -0.07833 0.12829 -0.25565 -1.1006 0.011163 0.31388 -0.51388 0.07589 0.35386 -0.35618 -0.32919 0.08122 -0.33814 0.062947 -0.12508 0.22906 0.02467 -0.094069 -0.25583 -0.24487 0.043666 0.0091619 0.35207 0.081739 -0.02883 0.1137 -0.56305 0.058042 -0.76967 -0.49271 0.24436 -0.086473 0.068059 -0.018047 0.10605 -0.70109 0.27901 0.21488 0.17911 -0.14744 0.018425 -0.11148 -0.55285 -0.14082 0.35474 -0.60856 -0.28296 -0.12065 -0.090213 -0.11983 -0.58197 0.0086246 0.0013245 0.31182 0.50457 0.27299 0.55147 0.12717 -0.1488 -0.26454 0.43758 0.33417 -0.42164 0.29328 -0.19169 -0.0074046 0.14103 -0.5882 0.032988 0.14665 0.25061 -0.19349 -0.38534 0.0090965 0.0059653 -0.28269 -0.35609 0.18184 0.096255 0.10224 0.053043 -0.3019 0.041359 -0.26399 -0.063274 -0.02482 0.063542 0.39201 0.23744 -0.24724 -0.24225 -0.18264 -0.27239 -0.24185 -0.092884 -0.20477 0.0010899 -0.43437 -0.21412 0.40609 -0.1354 0.0086481 -0.086986 0.021329 -0.13214 -0.62079 0.031945 -0.05953 0.025513 0.44382 0.057371 0.13853 -0.12456 -0.18408 -0.12404 -0.26832 0.14894 0.19661 -0.26587 0.27369 -0.089414 0.22716 0.53066 -0.43307 -0.18828 -0.0036546 0.24061 0.14429 -0.10455 -0.36603 -0.38975 -0.2034 0.32939 0.20402 -0.32099 0.24437 0.48904 0.33928 0.18173 0.13895 0.66337 -0.33198 -0.19541 0.019443 0.28744 0.19043 0.34892 0.35813 0.088143 0.091139 -0.13748 0.36737 0.20176 -0.0043235 -0.090212 -0.010585 0.019185 0.67056 -0.21248 0.16759 0.17342 0.30836 -0.18542 0.13246 0.40365 -0.12123 -1.0708 0.16409 -0.25313 -0.15942 -0.36416 -0.097073 -0.33131 1.2853 0.095807 0.29359 0.21321 -0.0036068 0.13177 -0.18284 -0.35391 -0.22083 -0.093146 0.58525 -0.31721 -0.35826 -0.33503 0.026759 -0.047307 -0.18407 0.046196 -0.21664 -0.45768 0.13206 0.52129 0.23208 0.54448 -0.28891 0.041169 0.31372 0.071176 0.15573 -0.036396 0.25716 0.57375 0.13991 0.51008 -0.38173 0.30227 -0.0007283 0.27895 0.24601 0.21686 -0.27876 -0.083185 -0.19907 0.090807 -0.26826 0.13686 0.4181 -0.023018 0.099959 0.048197 0.24172 -0.69496 -0.10671 -0.07638 0.51462 0.38393 -0.05066 0.256 0.20411 -0.47702 0.016411 -0.32448 0.10061 0.67381 0.33007 -0.6564 -0.29415 0.39081 0.26336 0.12121 0.26626 0.26826 -0.47474 0.31141 0.015365 0.45908 0.12166 0.38837 0.12387 -0.11373 0.33895 0.36341 -0.076558 0.39642 -0.4518 -0.089839 -0.26612 -0.64648 0.13016 -0.010753 0.36017 -0.1144 -0.08567 0.084942 -0.00021941 -0.12518 0.0238 -2.0636 -0.1826 0.55329 0.27338 -0.019874 -0.095743 0.011581 0.102 0.053544 0.19751 -0.33956 0.13106 0.38393 0.085855 -0.080973 -0.77532 -0.11722 -0.072102 -0.24398 0.077373 -0.40263 -0.45089 -0.39998 -0.68111
without -0.13048 -0.22532 0.10387 0.024079 -0.19536 0.096144 -0.089133 -0.27643 0.14616 -1.8686 -0.17345 0.057815 -0.44122 -0.022306 0.064302 0.24726 0.12853 -0.18403 0.066846 -0.14106 -0.0077301 0.10211 0.34659 -0.19509 -0.0321 -0.15476 0.23738 0.080804 -0.31617 0.39881 -0.1971 0.25127 -0.060447 -0.23393 -0.97 -0.15695 0.011043 -0.21348 0.14467 0.14678 -0.21191 -0.18409 0.25061 -0.14861 -0.37952 0.28838 0.30119 0.61646 -0.20329 0.15124 0.3127 0.19601 -0.023622 0.080971 -0.10037 0.20749 -0.019673 -0.16923 -0.23763 0.24814 0.35913 -0.28671 -0.27821 0.14793 -0.13354 -0.20953 0.56082 -0.0070595 0.31559 -0.09322 0.22012 -0.24247 0.13621 -0.10524 0.12209 0.077413 0.13326 0.34444 -0.10689 0.20002 0.25008 -0.061887 -0.15242 0.31029 -0.084738 -0.36606 -0.10698 -0.16937 -0.096556 0.2624 -0.66811 0.050921 -0.42066 0.34112 0.019287 -0.13796 -0.20532 -0.31416 0.00056843 -0.5199 -0.17285 0.21144 -0.11804 -0.090979 -0.10787 0.22942 0.066255 -0.0085579 -0.52778 0.070018 -0.07877 0.076571 0.20536 -0.30471 0.097051 0.13644 -0.093023 0.0971 0.043871 -0.33112 -0.12097 -0.16894 0.41364 0.014821 0.021086 -0.51746 0.10352 -0.16421 0.26419 0.21476 0.3975 -0.090446 0.56701 0.19197 -0.23912 0.36516 0.081203 -0.073483 -0.19862 -0.020071 -0.1598 0.40267 0.12974 0.34236 -0.43527 -0.13553 0.1061 0.067144 0.0078928 -0.24371 0.21564 -0.33362 -0.49808 -0.34346 0.31597 -0.15498 -0.077414 -0.40832 -0.1666 0.14836 0.2436 -0.29626 -0.32141 -0.19286 0.09331 0.12554 -0.20683 7.2595e-05 0.21847 0.076527 0.33816 -0.19786 -0.53539 -0.025023 -0.0088127 -0.057689 0.1977 0.54152 0.29515 0.24827 0.11967 -0.20154 0.065959 0.16689 -0.50035 -0.0061253 0.0078183 -0.18673 -0.17856 -0.38099 0.06398 0.032555 0.43153 -0.28778 0.21918 -0.059297 -0.10732 -0.15672 0.37366 0.34179 0.76337 -0.18379 -0.15301 -0.086674 0.034078 0.12475 0.055754 0.15042 -0.29443 -0.34377 -0.083254 -0.38951 -0.055691 0.00098151 0.45801 0.081847 0.17247 0.32909 -0.2062 0.39083 -0.22355 -0.022305 -0.062461 -0.12564 -0.21685 -0.26862 0.13859 0.081615 0.2232 -0.23413 0.05203 0.13088 -0.3068 -0.45621 0.13621 -0.35607 -0.1233 0.082835 -0.11133 0.038886 -0.041363 0.41762 0.51883 0.086149 -0.56632 0.538 0.31528 0.39624 -0.08556 -0.02048 -0.10639 0.17511 -0.17619 -0.1589 -0.16217 0.095429 -0.11501 -0.3139 0.25837 -0.097723 0.26486 -0.39182 -0.17945 0.049011 0.036138 0.42791 0.20557 -0.40091 -0.32277 -0.31881 0.11322 0.19982 -0.099991 0.0056043 0.055657 0.20755 -2.7377 -0.083705 0.28724 0.16184 0.20362 -0.14727 0.11426 0.1653 0.20403 0.26809 0.28788 0.20392 -0.042386 -0.21718 0.059848 0.21723 0.35271 0.003085 -0.060339 0.10883 -0.071593 -0.5519 -0.0082954 0.11076
past 0.095702 -0.037526 0.01538 0.29528 0.11275 -0.51749 -0.62014 -0.21694 0.38382 -1.5174 0.22152 0.073458 -0.25378 -0.22171 -0.30497 -0.24051 0.042798 -0.069434 0.10074 0.13964 0.19147 0.075839 0.11541 0.2928 -0.040491 0.18198 -0.057013 -0.057981 -0.076315 0.26671 0.52698 0.21672 0.068475 -0.28441 -1.0344 -0.50252 0.13844 0.043124 -0.17347 -0.18626 0.46234 0.05869 -0.72863 0.051633 0.12367 0.17238 -0.15993 0.17167 -0.005585 0.59229 0.20474 -0.064101 0.54443 -0.062479 -0.13738 0.16986 0.032365 -0.077496 -0.34707 0.054293 -0.022143 0.31486 -0.01361 -0.36677 0.10477 -0.46754 0.26135 0.37885 -0.11044 -0.37498 0.17475 0.02883 0.075049 0.24755 0.30644 -0.10337 0.24927 -0.079132 0.25871 -0.15638 -0.16319 -0.041669 0.21316 0.52018 0.27604 0.36528 -0.20612 0.11638 -0.10238 -0.071931 0.44274 0.29884 -0.28038 0.25078 -0.19951 0.21675 0.038963 0.12457 0.50946 -0.22148 0.47064 0.28967 0.14637 -0.058563 -0.38934 -0.0086768 0.17723 0.24131 -0.20806 0.30176 -0.041097 -0.56037 -0.48081 -0.25386 -0.22908 0.29119 0.33525 0.081025 -0.30156 0.050062 0.061039 0.025042 -0.1541 0.24383 0.28256 0.60577 -0.36865 0.36538 0.36989 -0.12197 -0.08404 0.14806 -0.11928 0.42617 -0.0020034 0.10611 0.10592 0.33651 0.07484 0.26596 -0.04744 -0.065507 -0.13475 0.91249 -0.15262 0.4335 -0.50956 -0.039733 -0.11383 -0.18385 0.44513 0.044515 0.22141 0.15581 0.48994 0.06501 -0.2048 0.10057 0.14356 -0.13416 0.17978 -0.36134 -0.28088 -0.86759 -0.01254 0.28833 -0.063921 -0.19257 -0.43926 -0.23743 0.11455 0.080403 -0.54221 -0.12463 -0.29335 -0.20735 -0.19531 0.58627 0.096187 0.60529 -0.23507 0.22362 0.18465 0.17617 0.012357 0.086749 -0.10875 0.077837 0.091936 0.19051 -0.31542 -0.35756 0.19798 -0.2125 -0.098979 -0.20784 0.34267 0.0063492 0.27581 -0.059872 1.2212 -0.3583 0.010917 -0.076146 0.00053537 -0.22198 -0.32391 -0.12211 -0.21673 0.11553 0.093023 0.26042 0.0013037 -0.29217 0.03002 -0.17522 0.12407 0.0015555 0.035547 -0.08435 0.63799 -0.083445 -0.067409 -0.042011 -0.0040466 0.15358 0.31211 -0.35588 0.3323 -0.042769 -0.51687 0.22878 0.038377 -0.088727 -0.31439 0.38077 0.31807 -0.1384 -0.21075 -0.1076 -0.38736 0.099208 -0.13159 -0.14487 -0.65374 -0.23345 0.59044 0.55072 -0.17328 0.50334 -0.025167 -0.47573 0.23244 -0.29155 0.34512 -0.59315 0.079442 -0.35221 -0.73185 0.15528 -0.36515 0.64471 0.15942 -0.36572 -0.29254 0.6669 -0.34201 -0.1313 0.039482 -0.020279 0.097512 0.25504 0.18195 0.046286 0.26403 -0.16593 -1.9226 -0.08889 0.46322 -0.039616 -0.26098 0.1565 0.41159 0.077831 -0.078587 0.22726 0.32701 -0.051284 0.28654 -0.09913 0.26842 0.074222 0.23932 0.5359 0.28895 0.34286 -0.29625 -0.010477 -0.39388 -0.010131
de 0.41448 0.37183 -0.54288 -0.27135 0.15284 0.36022 -1.0764 -0.024004 -0.18445 -1.6531 0.57112 -0.18643 -0.058574 -0.72651 -0.0086029 -0.63115 -0.21867 0.45084 0.60867 0.39753 -0.8752 0.69128 0.4408 -0.19983 0.10087 -0.17122 0.53098 0.66427 0.35006 -0.29386 0.6458 0.37171 -0.16801 0.42022 -0.026076 -0.53626 1.032 -0.017245 -0.42955 -0.53427 -0.4332 0.016421 0.5685 0.40968 0.10313 0.034887 0.25668 1.0771 0.26875 0.32428 0.30946 1.0023 0.55752 0.5903 0.12926 0.57999 -1.0379 -0.45901 0.26748 -0.79707 0.0017965 -0.58338 0.46264 0.49495 -0.22877 -0.74364 0.56701 -0.56406 0.10903 -0.71495 -0.26471 0.29522 -0.058993 -0.88959 -0.60917 0.038756 1.2225 -0.68813 0.29255 -0.35849 0.6717 0.53245 0.13624 -0.28097 -0.50283 -0.39963 0.23267 0.037684 -0.075682 0.14355 0.48721 -1.0279 0.12929 0.010412 0.34354 0.18583 -0.0054262 -0.84374 -0.2165 -0.23804 -0.037041 -0.15948 -0.32479 0.68905 0.35138 -0.20924 -0.7504 0.25709 0.1588 0.26403 -0.25668 -0.66041 0.094691 -0.35734 -0.35895 -0.41733 0.34912 -0.10958 -0.77036 0.34732 0.79024 0.24074 -0.26266 -0.5819 -0.79285 -0.14719 0.69302 0.69344 -0.49072 0.11429 0.021838 -0.54908 -1.3582 0.61566 0.1289 -0.71349 0.22562 -0.3613 -0.076056 -0.22253 -0.36856 -0.07549 0.41996 -0.065592 -0.075305 -0.50037 0.72628 -0.20504 -0.057119 0.26549 0.968 0.35881 -0.73894 0.063118 0.49423 -0.22665 0.076426 -0.41287 -0.024135 0.15265 0.19958 -0.27728 -0.45046 0.016738 -0.086939 -0.17039 -0.38913 -0.35308 -0.23524 0.85672 0.54238 -0.11994 0.080483 -0.51495 1.2306 0.20012 -0.55002 0.4413 -0.13329 0.5243 -0.31744 0.82663 -0.042154 0.39334 0.20649 -0.31779 -1.7761 0.12442 -0.17439 0.30113 -0.044302 0.11486 -0.23423 -0.31866 -0.47703 0.11645 -0.54653 0.40859 0.5564 0.1327 0.67052 0.27916 -0.21002 -0.53149 1.0093 -0.045034 -0.42831 0.38832 -0.20181 0.076553 -0.1732 -0.29056 0.37772 0.41038 0.040509 -0.087522 1.2571 -1.546 -0.33626 -0.23727 0.086989 -0.11099 -0.1936 0.48721 -0.034807 -0.20129 0.79211 -0.15873 -0.055829 -0.3564 -0.28852 -0.67595 -0.48818 -0.028992 0.62282 -0.11906 0.093839 0.48218 -0.11346 -0.094869 -0.57355 -0.63212 0.66075 -0.15648 -0.37756 0.57739 -0.037294 -1.2673 0.17808 -0.96523 0.49996 -0.21741 0.39923 0.88803 0.46924 -0.050811 0.45569 -0.40686 0.07708 -0.75749 0.4702 -0.082676 -0.46605 0.75468 0.3396 0.23129 -0.26686 0.29429 -0.26653 -0.1141 -0.59503 -0.095084 -0.15246 -0.23753 0.7209 0.19226 -0.9468 -1.0594 -0.1586 0.49354 0.81132 0.15282 0.25565 -0.6018 0.0020301 0.3442 0.14428 0.026361 0.24592 0.75122 0.35971 0.51706 -0.28249 -0.63969 0.35632 0.090901 0.33853 -0.91931 -0.34436 -0.14252
near -0.4904 0.64408 -0.3802 -0.27547 0.01292 -0.2436 0.06006 -0.067877 -0.059604 -1.1174 -0.36739 0.078945 0.090583 0.14585 0.26145 0.68749 -0.24392 -0.11854 0.0073844 0.17617 -0.39057 -0.1828 0.33142 -0.54653 -0.16363 0.053844 0.16743 -0.19183 -0.24041 0.45587 0.67481 0.039721 -0.36722 0.7661 0.37878 -0.029955 -0.61731 0.23454 -0.19305 -0.11842 0.16843 0.28608 0.17356 0.26892 0.076821 0.3925 0.66109 0.43726 0.20514 0.47069 -0.08042 -0.46107 0.023294 -0.19249 0.23933 0.044862 -0.35651 0.22456 0.23981 0.16959 -0.11771 -0.43083 0.76934 -0.14045 0.10774 -0.17622 0.1088 -0.0039038 -0.13685 -0.022993 -0.015414 -0.22843 0.032931 -0.34673 -0.89297 -0.15201 0.039038 -0.13246 0.28401 -0.45251 0.31867 -0.41818 -0.32635 0.36165 0.046037 0.114 -0.0007271 0.15107 -0.073564 0.23085 0.54182 0.19632 0.39817 -0.079671 0.24933 0.66904 -0.082287 -0.024481 -0.44669 -0.10719 0.05485 0.42871 -0.040696 0.48181 -0.10986 0.19978 0.77563 0.1338 0.15394 0.1448 -0.37175 -0.70479 0.19203 -0.30281 0.099379 0.12709 0.34266 0.14084 -0.038461 0.14725 0.047868 -0.32965 0.14633 -0.21512 -0.23304 -0.046454 0.14007 -0.18887 0.31655 -0.29213 0.21365 0.64599 -0.050048 -0.12773 -0.17881 -0.13166 0.22214 -0.38807 0.43433 -0.36626 -0.22201 -0.21935 -0.36284 0.1169 -0.43803 -0.16761 0.05096 -0.038951 -0.45719 -0.1482 0.46895 0.015424 0.09523 0.01584 0.65191 0.30996 0.30852 0.09311 0.4977 0.35449 0.32524 -0.56353 0.071638 -0.4717 -0.070118 -0.29699 0.31565 -0.32696 -0.18488 -0.060859 -0.26795 -0.077433 0.60838 -0.2054 -0.29267 0.51502 -0.17511 -0.20317 0.18094 -0.070878 0.084817 0.24113 0.22085 0.34282 0.97333 -0.23615 -0.041124 -0.036747 0.069216 0.49705 0.30813 0.26604 -0.029815 0.00814 -0.66404 -0.22661 0.10873 -0.81719 -0.38225 0.54897 1.3049 -0.20673 -0.10899 -0.10534 -0.01839 -0.22306 0.041503 -0.27619 0.2041 0.017152 0.031828 0.14433 -0.20999 -0.47442 0.027781 -0.057174 -0.032506 -0.090536 -0.37795 -0.18898 0.89624 -0.18789 0.21602 -0.2625 -0.53529 0.046 -0.19605 -0.15904 0.11788 -0.12524 0.12739 0.15301 -0.19775 -0.42612 0.64909 0.11838 0.031626 0.22397 0.22331 -0.013213 0.025966 0.32771 0.43088 -0.23326 -0.28378 -0.21426 0.52868 0.02603 0.14683 -0.1048 -0.19535 0.065737 0.018433 0.13835 0.60261 -0.061811 -0.19234 -0.20929 -0.025499 -0.10886 0.44129 0.32763 -0.093095 -0.2996 -0.19958 -0.20999 0.28761 0.055309 0.013139 -0.39154 -0.40583 -0.31201 0.15297 0.19143 -0.0043133 -0.2179 -2.2391 0.076504 -0.20891 0.3907 -0.35002 0.12425 0.12135 -0.80258 -0.19146 0.31335 0.15137 -0.10392 0.091996 0.4172 0.11811 -0.10524 -0.12947 -0.411 -0.17156 0.67057 0.24969 -0.28795 -0.41457 0.43717
ago -0.18983 -0.0013256 -0.12543 0.29983 0.33253 -0.18038 -0.14923 -0.32889 0.4326 -1.2848 0.26633 -0.022722 -0.0987 -0.032427 0.038163 0.010301 0.28549 0.21258 -0.2418 0.12206 -0.17093 0.1876 0.33814 -0.13839 -0.47744 -0.12021 -0.099683 -0.39253 0.10593 0.046696 -0.087018 0.21219 -0.076531 0.025562 -0.86543 -0.36425 -0.062518 0.22145 0.3096 -0.038101 0.56766 0.01786 -0.24149 0.046605 -0.14287 -0.14305 -0.28028 0.33989 0.0016286 0.23077 0.11464 -0.49285 -0.016869 0.37549 0.17729 0.16739 0.34063 0.11713 -0.17412 -0.34433 -0.34386 0.20978 0.40546 -0.41306 -0.04162 -0.48914 -0.19151 0.36046 -0.18705 -0.4926 -0.043631 0.030612 0.044627 0.25788 -0.02634 -0.096073 0.010597 -0.49138 -0.22056 0.266 -0.2827 0.079015 -0.010178 0.38517 0.2115 0.28225 -0.18196 0.35808 0.10668 0.077083 -0.13979 0.28081 -0.35865 0.41201 -0.080247 0.040839 -0.21693 -0.049557 0.19946 -0.24603 0.19029 0.31146 0.35636 -0.24197 -0.159 -0.002504 0.15793 0.094366 -0.19221 0.20543 -0.3251 -0.26501 0.061088 -0.36855 -0.03739 0.175 0.10532 -0.12832 0.0035307 -0.1343 -0.16855 -0.31224 -0.3238 0.25481 -0.15565 0.47064 -0.039327 0.29145 0.00642 0.098193 -0.094855 -0.10532 -0.093851 0.10517 -0.10982 0.21416 0.046821 0.01025 0.031635 0.14394 -0.023266 -0.19793 0.15044 0.32558 -0.54126 0.24909 0.091762 0.30767 0.084889 -0.033574 0.2452 0.047142 -0.10069 0.065552 0.061651 0.24849 -0.47899 -0.086144 -0.046286 0.02632 -0.090368 -0.091075 -0.24426 0.4106 0.15617 0.064484 0.16654 -0.10246 0.13191 -0.083915 -0.19947 0.0572 -0.34184 -0.066744 -0.051513 -0.049619 -0.11137 0.11347 0.40104 0.87477 0.1473 0.60667 0.07182 -0.182 -0.05011 0.037768 -0.56396 0.19345 0.298 -0.0058081 -0.054951 -0.2317 0.26841 0.097907 0.12911 -0.19031 -0.07673 0.13174 0.023686 0.16183 1.1999 -0.36292 -0.0376 0.10343 -0.22072 -0.20261 -0.03449 0.033944 -0.086527 -0.011528 -0.085496 0.13722 0.24264 -0.10761 0.097356 0.099403 -0.34427 -0.23455 -0.13886 -0.118 1.0436 -0.072919 -0.050174 0.36196 0.15126 0.16343 0.11686 -0.2151 0.11845 0.30886 0.062715 0.10212 -0.18121 -0.25549 -0.030115 -0.24673 0.56375 -0.053449 0.35467 -0.21737 -0.15755 -0.23425 0.25411 0.07813 -0.39192 -0.58451 0.2947 -0.039544 0.1341 0.14715 -0.082624 -0.02052 0.016173 -0.10489 0.58196 0.099557 0.34231 0.049679 0.27385 -0.0065097 -0.16437 0.57111 -0.15263 -0.1226 0.0091726 0.52288 0.097274 0.086201 0.24612 0.088903 -0.25331 0.043671 0.42155 -0.15918 0.3723 0.075379 -2.1002 0.16009 0.12364 0.0061505 -0.26849 -0.0014359 0.06877 -0.24286 -0.15194 0.1355 -0.2335 -0.026194 -0.14205 0.086353 0.18445 -0.21866 0.12253 0.42892 0.14883 0.21039 0.061746 -0.26203 -0.27094 0.062036
